beautiful 0.27363 0.023276 -0.45991 0.20225 -0.14634 0.19541 -2.5836 -1.3096 -0.051883 -0.74585 -0.10765 -0.40806 0.34753 0.3481 -0.44468 -0.67662 -0.45531 -0.35925 -0.47155 0.29607 -0.19859 0.13487 0.45591 0.17965 0.30162 0.39745 0.18574 0.079818 -0.20822 0.41269 0.12821 0.23743 0.28396 0.52562 0.017344 -0.18602 0.24191 0.068302 0.4548 -0.27086 -0.055349 -0.23051 0.45207 0.050755 -0.23643 0.0040686 -0.13762 -0.72753 -0.34083 -0.17018 0.169 -0.01243 0.1804 -0.11303 0.26872 0.098912 0.23268 -0.41697 0.70158 -0.16008 -0.072794 -0.10944 0.53552 0.12561 -0.38048 -0.37996 0.09124 0.53833 -0.52023 -0.12577 -0.65676 0.054351 -0.35558 0.17026 0.0082665 -0.8277 -0.42965 0.10714 0.64237 0.19276 0.182 0.48702 -0.22064 -0.26973 0.051923 0.27721 0.11725 -0.17499 0.030368 0.32627 -0.11662 0.091587 0.16938 0.37851 -0.040289 -0.0072534 -2.1376 0.33576 -0.079686 -0.12276 -0.11505 -0.30283 0.088296 -0.15151 -0.050183 0.44791 -0.7529 -0.3472 -0.30822 -0.3519 -0.40258 0.011957 0.40216 0.12222 -0.63175 0.29737 0.44658 0.048254 0.53762 -0.05216 -0.22672 -0.22059 0.68482 0.020207 -0.1734 -0.34681 -0.10745 -0.12858 -0.090175 -0.26172 -0.29591 0.19867 -0.23146 -0.25295 -0.19136 0.059417 0.45789 -0.33365 0.12101 0.60326 0.10136 0.69676 -0.16891 -0.24046 -0.24547 -0.37655 -0.27395 -0.051372 1.0702 0.084513 0.12801 0.28545 -0.042343 -0.033806 -0.0037357 -0.048792 -0.43224 -0.025213 -0.58275 0.35875 0.65031 -0.028349 0.35684 -0.1355 0.21644 0.69121 -0.22386 -0.18649 0.35899 0.14133 0.024116 -0.062178 -0.39575 -0.57028 0.53481 0.41509 -0.32727 -0.31698 -0.011187 -0.2891 0.036113 -0.18275 -0.1057 -0.10505 0.074447 -0.0040827 0.26429 0.32555 0.40329 -0.31769 -0.095747 0.067883 -0.29102 0.21215 0.22513 0.40045 0.21614 -0.013507 0.097095 0.38057 -0.54372 0.10851 0.58201 -0.43089 -0.42684 0.14683 -0.10389 0.26596 0.18682 0.21772 -0.13588 -0.21235 0.19082 0.057486 -0.28148 0.098734 0.28779 -0.21123 -0.094706 -0.31615 0.21058 -0.037037 0.22132 0.072612 -3.1496 -1.0899 0.1939 -0.49461 -0.39264 -0.13461 0.39556 0.14059 -0.37489 -0.50904 -0.14102 -0.030084 -0.58533 -0.24265 -0.16898 -0.015799 0.75242 -0.25543 -0.084538 0.0052923 -0.12993 0.16594 -0.00066653 0.33352 -0.24406 -0.34911 0.30757 -0.062662 -0.13553 -0.21679 0.40431 -0.2254 -0.003834 -0.10344 -0.35941 -0.55223 -0.29169 0.1875 -0.39515 0.44332 0.32301 -0.17781 -0.57619 0.16704 -0.17157 0.19069 -0.1971 0.0016449 -0.79067 0.14701 -0.046411 0.18247 0.13199 -0.29072 -0.73826 0.33722 1.2683 0.2348 -0.20659 -0.34847 0.50298 0.52218 -0.20276 0.16924 -0.18541 0.10631 -0.29032 -0.18822 -0.36792 -0.18418 0.5046 0.019619 -0.053564 0.035998 0.15684 0.38211
happy -0.066124 -0.20029 -0.22159 0.050562 0.41483 0.082958 -3.0281 -0.48354 0.23709 -1.014 0.29542 0.0076227 0.039743 -0.069646 -0.35332 0.084045 0.061455 -0.15298 -0.036661 0.025708 0.058447 -0.20592 0.1454 0.23791 -0.42725 0.0045271 0.3398 0.14043 0.54328 0.55218 -0.41793 0.11697 0.4025 0.032377 0.10181 -0.46919 -0.41355 -0.53475 -0.0024812 0.0078813 0.11365 0.10926 0.22197 -0.056043 -0.29144 -0.36849 0.2696 -0.31606 -0.047186 -0.3143 0.60827 0.10812 -0.093937 0.084942 -0.33334 0.14495 0.35428 -0.37231 0.69057 0.13127 -0.075571 -0.14041 0.28348 -0.17935 -0.19723 0.1725 -0.19723 0.09778 -0.087354 0.16424 -0.32504 -0.37933 0.15197 -0.14036 0.083481 -0.58956 0.16806 0.12686 0.22867 -0.24224 0.26181 -0.33561 -0.50605 0.15678 -0.30395 0.30032 0.2043 0.17874 0.29215 0.7102 -0.15448 0.010035 0.35128 0.042967 -0.61181 -0.35977 -1.4115 0.071178 0.12985 -0.071335 -0.15771 -0.079209 -0.3702 -0.32817 0.10787 -0.5729 -0.11479 -0.097439 0.050442 0.183 -0.043159 0.010654 0.17579 0.46315 -0.02979 0.42138 -0.41851 -0.20035 0.023868 0.27922 0.12967 0.093299 0.078679 0.62943 0.2719 0.14895 0.22069 -0.077311 -0.319 0.18882 -0.74963 0.14696 0.21083 -0.63209 -0.27742 0.011936 0.184 -0.26001 -0.20562 0.34861 -0.36557 0.33058 -0.025363 -0.11353 0.18019 -0.76348 -0.27946 0.11251 0.53153 0.15708 0.52735 0.41536 -0.012433 -0.19073 0.20639 0.066987 0.15985 0.44578 0.32634 0.44949 0.30134 -0.26611 -0.40641 -0.071775 -0.070589 0.19586 -0.019747 0.042756 0.27262 -0.35406 0.29305 0.36322 0.25928 -0.67746 -0.44859 -0.082762 -0.21868 -0.10625 -0.091696 -0.22597 0.29624 0.18726 -0.14001 0.084913 0.12003 -0.40014 -0.26329 0.21235 0.17668 0.10236 -0.21469 0.3309 -0.007229 0.19065 0.19485 0.27084 0.41299 -0.39799 -0.35973 -0.15039 0.34781 0.073818 0.14713 0.083983 -0.07489 -0.18819 -0.017965 -0.34948 0.15324 0.28744 0.24419 -0.094407 0.11563 0.23261 0.20095 -0.15684 -0.38442 0.10056 -0.4735 -0.047589 0.048304 0.12357 0.15699 0.01341 -3.0288 0.012324 -0.29377 0.38429 -0.55158 -0.60843 0.4798 0.12111 -0.41156 0.30766 -0.37188 0.041726 -0.42853 -0.11152 0.55721 0.31841 0.109 -0.18143 -0.76813 0.7311 -0.14075 0.29814 -0.38611 0.57147 0.30285 -0.078147 0.056754 -0.19776 -0.23193 0.047745 0.41034 0.083904 0.19027 0.65427 -0.42493 -0.16311 -0.18019 -0.044769 -0.13411 -0.16378 -0.17429 0.14586 0.25383 -0.0066401 0.091547 0.22854 -0.10348 0.12651 -0.44895 -0.17734 -0.5011 0.16695 -0.24136 0.013578 0.065264 -0.15897 0.15092 -0.028688 -0.38964 -0.051028 0.52623 0.58246 -0.16603 0.64921 -0.31987 -0.42526 -0.29162 0.19003 -0.078787 0.073229 0.1947 0.13258 -0.058924 0.37766 0.56944 -0.35104
content -0.043538 -0.31879 0.096398 0.29994 0.6132 0.017845 -3.5573 0.90318 0.76362 -0.24422 0.10802 0.090174 0.17728 0.039594 0.4368 -0.09258 -0.66876 0.18996 -0.00039587 -0.23676 -0.46544 -0.45316 -0.30925 -0.34419 -0.56616 -0.61578 0.2384 0.089541 -0.64794 -0.085435 0.0010386 0.35602 -0.38953 -0.29342 -0.2288 -0.67677 0.11932 -0.0021073 0.11191 0.4094 -0.36883 0.29239 -0.094552 -0.063995 0.11525 0.11072 0.049694 0.2284 -0.19211 -0.35689 -0.62364 0.80492 -0.38696 -0.15409 -0.78441 -0.092383 -0.29831 0.13873 -0.21776 -0.11597 0.52638 0.27806 -0.25632 -0.51331 0.16307 0.22643 0.16844 -0.03391 0.1602 -0.31217 0.5595 0.29461 0.2207 0.19315 0.21138 0.2009 -0.59948 0.15138 -0.32572 -0.2534 -0.54905 -0.97386 0.17656 -0.0082234 0.30342 -0.13929 -0.067685 0.51096 -0.049541 0.045842 -0.75235 0.21162 -0.26045 -0.33702 -0.10283 0.25 -2.8024 -0.37234 0.32923 0.096588 -0.1928 0.45351 -0.31425 0.24 0.38607 0.73522 -0.30872 -0.5234 -0.29744 0.055512 -0.61114 0.056711 -0.17353 -0.049048 0.081211 -0.29148 0.054 -0.30289 -0.33159 -0.3646 0.39326 -0.31719 0.28622 0.26637 0.94655 0.86596 0.43593 -0.022494 0.27651 0.39717 -0.33529 0.058641 0.61167 -0.18413 -0.16188 -0.19801 0.075852 -0.324 0.37968 0.85457 0.72994 -0.079142 -0.040722 0.020073 -0.028676 0.043739 0.042661 0.070285 0.37536 -0.16695 0.48052 -0.31284 -0.56843 0.15606 0.079722 -0.082687 -0.43483 -0.36673 0.14809 -0.21841 0.048789 -0.07229 -0.018979 0.22527 0.32912 -0.092975 0.40493 0.41468 -0.29687 0.49919 -0.15265 -0.27094 0.265 -0.073461 -0.28416 -0.1381 0.17093 0.10323 -0.096655 -0.44927 -0.39594 0.031557 -0.21958 -0.075186 0.15758 0.14562 0.21978 0.099085 0.21518 -0.34906 0.035106 -0.034467 0.20804 0.81721 0.41146 -0.48837 0.31973 -0.13971 1.1024 -0.21019 0.21704 0.021573 0.090418 0.47344 -0.11669 -0.46188 -0.25467 -0.33591 0.10724 -0.11658 -0.062461 0.18318 0.23309 0.17643 -0.33589 0.10564 0.61115 -0.4178 -0.2408 0.56316 -0.15882 -0.48466 -0.17102 -0.084958 -1.6572 0.32485 0.2727 -0.40167 0.1523 -0.16516 0.32168 -0.22282 0.25342 -0.15896 0.32052 0.037561 -0.41923 0.1308 0.078832 -0.48056 0.30251 -0.2767 -0.37151 -0.28534 0.030906 -0.21921 -0.30336 -0.023294 0.26195 -0.33866 -0.40069 0.52313 -0.24878 0.38948 0.24117 -0.25352 -0.053643 0.11604 -0.098004 -0.40233 -0.096775 0.49119 0.14782 0.19255 -0.078124 -0.4201 -0.53362 -0.053227 -0.57411 0.085099 0.062619 0.49037 -0.30606 0.59625 0.13618 -0.082059 0.30968 0.41359 -0.23561 0.37566 -0.833 -0.093288 -0.16559 -0.96792 -0.10706 0.17141 -0.11257 0.1472 0.35722 -0.38042 -0.40791 0.32986 0.29264 0.15779 0.21108 1.1261 -0.30707 0.25581 0.08745 -0.22038
unique 0.292 0.20321 0.013243 -0.10904 0.31241 0.14678 -2.952 -0.19997 0.20506 -0.11307 -0.14593 -0.47855 -0.048935 0.17571 0.014131 -0.22741 -0.28164 -0.5006 -0.46039 0.025584 0.051907 0.19858 -0.14018 0.084856 0.23412 -0.17022 0.025933 0.41642 -0.20198 -0.43801 -0.34076 -0.13021 -0.0092161 -0.18379 -0.20104 -0.36105 0.39303 -0.21186 0.17874 0.0067426 -0.47844 -0.56502 0.10447 0.10716 0.29214 -0.18642 -0.23744 -0.29187 -0.44824 -0.06729 -0.16287 0.13622 0.38166 0.07636 -0.01056 -0.26801 0.10209 -0.27196 0.13455 0.17646 0.061912 0.12522 0.051384 0.26421 -0.4501 -0.38084 -0.2552 -0.083298 -0.22714 0.32369 -0.41163 0.30769 -0.20197 -0.096978 -0.050608 -0.3859 0.010358 0.16678 0.15208 0.57389 0.034431 0.097112 -0.14939 0.030535 -0.19728 0.042569 -0.24415 0.32737 0.033534 -0.0033432 -0.11862 -0.15725 0.1295 -0.13195 -0.28222 -0.10753 -3.3589 -0.086374 -0.086469 -0.11942 0.13712 0.068706 0.50948 0.27361 0.23611 0.31056 -0.096926 0.24429 -0.10444 0.083573 -0.07904 -0.35314 0.16645 0.062406 -0.25319 0.17034 0.42436 0.19403 0.34263 -0.41368 0.27675 -0.23564 -0.015634 -0.050057 -0.1079 0.074995 0.35245 0.14562 -0.35657 0.13328 -0.16627 0.10701 -0.6045 0.16051 -0.042742 0.0047298 -0.15866 -0.084619 -0.020666 0.26859 0.070757 0.46617 0.14352 -0.2221 -0.65403 0.57828 0.06473 0.13401 0.37863 -0.29134 0.59402 -0.25482 0.070185 0.14345 0.24403 0.71114 0.20915 0.084557 -0.47006 -0.0098263 0.26504 -0.24161 0.3144 -0.17724 -0.24704 0.62471 -0.48823 -0.12923 -0.032129 0.48696 -0.25925 -0.062926 -0.031862 -0.17802 0.13256 -0.15929 -0.1445 -0.58276 0.11067 -0.27133 0.13547 0.35789 -0.36539 -0.22432 0.33402 0.071753 0.023483 0.36093 0.2255 -0.21432 -0.63941 0.014343 -0.46935 0.063893 0.28971 0.19056 0.094591 -0.080363 0.10108 -0.16656 0.44583 -0.13926 0.067183 -0.18869 -0.36051 -0.087829 0.32012 0.25393 0.67313 0.028009 -0.097902 -0.23502 -0.028901 -0.064243 -0.35255 0.010826 0.074937 -0.17461 -0.22636 0.43402 0.056566 -0.066083 0.27296 0.5047 -1.8509 -0.62083 -0.056251 -0.54418 -0.069878 0.23436 0.22074 -0.58156 -0.18531 -0.10296 0.077495 -0.12273 -0.2264 -0.31052 0.16085 -0.21179 0.31095 -0.1986 0.29904 -0.22411 0.023434 -0.15274 -0.30354 -0.18509 0.033545 -0.14724 -0.08698 -0.080298 0.080194 -0.22446 0.37207 0.20365 0.0064776 -0.21446 0.02495 -0.19319 0.27051 0.012985 -0.26951 -0.060403 0.23527 0.3394 -0.50008 0.27706 0.067853 0.19529 0.13838 -0.035061 -0.17763 0.19821 0.027243 -0.15079 -0.21261 0.38105 -0.42209 0.028225 -0.12377 0.57023 -0.17575 -0.14448 0.46303 0.33221 0.048703 -0.33934 -0.01533 -0.11689 0.0062101 -0.09653 -0.45938 -0.33479 -0.0033346 0.033106 0.29279 -0.016858 0.15282 0.20611
proud 0.1219 0.31533 -0.21315 -0.07453 0.0081766 -0.19354 -2.3542 -1.0047 0.016438 -0.22902 0.43001 -0.095705 0.21264 -0.036605 -0.13357 -0.50464 0.26269 -0.69335 -0.14513 0.24869 0.69544 0.23661 -0.14611 0.4258 -0.069628 0.22615 -0.31403 0.13144 0.28675 0.3392 -0.73246 0.0013864 -0.0043182 0.12127 0.038002 0.088686 -0.74005 -0.16641 0.03431 -0.23488 -0.56837 -0.11016 0.33033 0.33381 -0.43366 0.085855 0.62745 -0.61219 0.49977 -0.090274 0.53326 -0.021509 0.14069 -0.38185 -0.32064 -0.35773 0.4802 -0.5234 0.59927 0.44985 -0.029149 -0.023092 0.26566 -0.050598 0.15144 0.22609 -0.050496 0.5899 0.24043 0.044657 -0.39074 -0.1563 0.21273 -0.058224 0.18709 -0.34941 -0.10615 -0.29122 0.004272 0.062478 0.39579 -0.48733 -0.61389 0.26155 -0.37044 -0.17151 0.049028 0.021848 -0.73085 0.12769 0.018711 0.3116 -0.093539 0.081863 -0.1672 -0.32821 -1.5769 0.22346 0.18671 -0.01164 -0.26424 -0.17155 -0.45168 -0.2014 0.099874 0.46603 -0.39617 -0.1989 0.18535 -0.23302 -0.34819 0.24696 -0.088319 0.31104 -0.29263 0.34101 -0.24642 -0.1862 0.071229 0.25426 -0.023316 -0.32085 -0.17176 0.048104 -0.51587 -0.15575 -0.0024015 0.25762 -0.27938 0.17151 -0.6375 0.11543 0.24957 -0.21537 0.61158 0.027544 0.3247 0.09928 -0.09178 -0.18866 -0.050352 0.096999 0.41639 -0.66451 -0.10732 -0.030369 -0.016221 0.24611 -0.51978 -0.50802 0.22609 -0.084032 0.12451 0.090179 -0.27715 0.27042 -0.067938 0.36433 -0.10233 0.18089 -0.11138 -0.011285 -0.10821 0.21272 0.018692 0.20561 0.049021 -0.06578 0.43524 -0.23903 0.26916 -0.010738 -0.22469 -0.4921 -0.3231 0.21873 -0.046471 -0.053442 0.25211 0.11919 0.22378 0.33954 -0.26809 0.19285 0.092148 -0.38136 -0.12131 0.41336 -0.18129 -0.057818 -0.21649 0.59341 0.23038 0.29329 0.030965 0.24048 0.063565 -0.57807 0.68284 -0.26914 0.017083 -0.062571 0.060249 -0.18011 -0.22069 -0.062982 0.24327 0.35981 0.48034 0.096349 0.27884 0.21546 0.091629 0.48391 0.29103 -0.1396 0.13334 0.24291 -0.1145 -0.44142 0.34123 -0.35621 0.0029653 0.4388 -2.3092 -0.34478 -0.1983 0.39329 -0.10959 -0.049069 0.15145 0.2312 -0.062038 0.12366 -0.26423 0.13747 -0.39743 0.32105 0.47818 0.69461 0.2348 -0.23957 -0.26946 0.70454 0.23829 -0.31574 -0.71418 -0.26936 0.38684 -0.30032 -0.061439 0.52491 0.0042432 -0.48973 0.59126 0.27712 0.082892 -0.019531 0.14568 -0.26226 -0.091394 -0.4793 -0.2537 0.29413 -0.35598 -0.059068 -0.10073 -0.17406 -0.38094 0.21617 -0.25868 -0.24127 -0.54832 0.26469 -0.18763 0.56707 -0.16138 -0.059123 0.046859 -0.25559 -0.077394 -0.26722 0.12692 -0.3334 0.36205 0.30226 0.30198 0.6734 -0.60883 0.050312 -0.46588 -0.18417 -0.21996 0.37054 0.15271 0.44286 0.095473 0.17652 0.46744 0.010744
excited -0.52608 -0.41594 -0.19981 -0.28635 0.076656 -0.37368 -2.8349 -0.32858 0.033488 -0.34673 0.19233 0.03833 0.24509 0.18421 -0.13904 -0.052107 -0.34963 0.047642 -0.34188 0.22647 -0.19075 -0.097662 0.11563 0.326 -0.32044 0.22149 -0.0082051 0.045865 0.47048 0.52977 -0.54904 0.12285 0.025125 0.4831 0.17761 -0.46996 -0.037595 -0.34122 -0.12181 0.049986 -0.73529 -0.036864 0.35936 -0.10991 -0.14862 -0.31306 0.36814 -0.38343 0.40659 -0.47524 0.14998 -0.082256 0.52951 -0.73899 0.004702 -0.15191 0.48325 -0.14134 1.0449 0.87173 -0.18696 -0.074557 0.044933 -0.34648 -0.12605 0.24807 -0.076032 0.14384 0.017366 -0.42829 -0.31916 -0.43877 -0.42812 0.06164 0.48157 -0.88041 0.19117 0.044714 -0.043514 0.093531 0.084328 -0.37494 -0.42033 0.26553 -0.11877 0.23765 0.38686 -0.22706 0.24145 -0.2487 -0.31992 0.026119 0.061509 0.25708 -0.66482 0.0062645 -0.97901 0.32386 0.027876 0.66729 -0.27266 0.32724 -0.12999 0.19034 0.25439 -0.21806 -0.14197 -0.4171 0.42179 -0.12709 -0.44227 0.35347 -0.44224 0.77758 -0.046818 0.6346 -0.42779 -0.49854 0.19731 -0.19309 0.25249 0.1455 0.10564 0.47089 -0.09493 0.129 -0.012607 0.0647 -0.36928 0.15667 -0.46982 0.25125 0.049352 -0.57148 0.24905 -0.072322 -0.10462 0.20312 0.65761 0.4339 -0.17662 -0.10831 -0.15256 0.094512 -0.13878 -0.56027 -0.34751 0.052173 -0.24481 0.10402 0.21297 0.25936 -0.24342 0.0021106 -0.04292 0.31369 -0.09003 0.4076 0.22933 0.19594 0.21131 -0.31675 -0.10685 0.039436 0.20992 -0.032895 -0.074183 -0.039653 0.11552 -0.29939 -0.015631 0.16937 -0.081086 -0.41604 -0.082012 0.04478 -0.11415 -0.10005 -0.60091 0.04818 0.26814 0.67678 0.32505 -0.079845 0.0057512 -0.10375 -0.28878 -0.024102 0.021949 0.14779 0.12153 0.66996 0.012409 0.020693 0.38055 0.011453 -0.3175 -0.76763 0.11003 0.21865 0.098467 -0.037414 -0.024462 0.13464 -0.38942 -0.20163 -0.042362 -0.11068 0.50135 -0.09962 0.62176 0.17322 0.030161 -0.12124 -0.032008 -0.00078323 -0.38084 0.16365 -0.33335 -0.37455 0.30599 -0.36618 -0.13288 0.4183 -2.1945 -0.056508 0.10091 0.33531 -0.033881 -0.18792 -0.2609 -0.15767 0.22456 0.292 0.026833 0.17716 -0.31742 0.070301 0.2222 0.53524 0.27174 -0.022065 -0.60745 0.63952 -0.08091 -0.18315 -0.64936 0.22131 0.14739 -0.4639 -0.12585 0.39415 0.31695 -0.18558 0.72775 0.16271 0.61063 0.076611 -0.37023 -0.2979 -0.15303 0.18986 0.18513 -0.27115 -0.58196 0.18165 -0.33865 0.096694 0.029535 0.070483 0.027472 -0.22669 0.020664 -0.090523 -0.24578 0.22971 -0.063808 0.14034 -0.12091 -0.16944 0.23596 -0.23554 0.064484 -0.20945 0.27493 0.49722 -0.24799 0.64852 -0.5345 -0.095897 -0.44028 -0.35628 -0.48471 0.48922 -0.0029818 0.19024 0.27253 0.42283 0.29077 -0.71357
sad -0.075607 -0.41889 -0.45454 0.19666 -0.46814 0.4455 -2.7476 -0.13388 0.2394 -0.63162 0.86075 -0.11384 -0.35918 0.02025 -0.27952 0.034187 0.141 -0.31805 -0.17084 0.078234 0.14181 0.55818 0.40351 0.35882 -0.73243 0.073169 0.12485 0.16567 0.62833 0.7226 -0.18785 0.56989 0.26537 0.73563 0.0056542 -0.33369 0.016992 -0.37935 0.38664 -0.29406 0.25237 -0.1995 -0.17744 0.023425 -0.33777 0.49742 0.010642 -0.48519 -0.10585 -0.33662 0.31575 -0.13367 -0.038917 0.26732 0.030558 -0.15792 -0.043048 -0.082048 0.90139 0.027617 -0.38555 0.0067671 0.80571 -0.1648 0.36164 0.29214 -0.22368 -0.0041695 -0.10597 0.018645 0.12633 -0.27448 -0.66681 -0.11272 0.5311 -0.50966 0.25818 -0.18255 0.064692 -0.0079939 0.20515 -0.6326 -0.32829 0.28287 0.072365 0.097774 -0.12425 0.59046 0.19593 0.49941 0.2318 0.20841 -0.072496 0.37723 0.064947 0.72993 -0.95486 0.23505 -0.092373 -0.21178 -0.44149 -0.01078 -0.71713 -0.19569 0.064796 -0.37357 -0.043933 -0.68109 0.090815 -0.13995 0.022085 0.31056 0.1583 0.07 -0.20566 0.58133 -0.21344 -0.34011 0.35147 -0.049172 -0.45384 -0.25845 0.16802 0.10471 -0.16988 -0.72466 0.38653 -0.49849 0.19898 -0.38316 -0.56409 -0.27931 0.46924 -0.17251 0.0032096 -0.031428 0.61815 0.16365 -0.42089 0.32058 0.16585 0.42763 0.056124 0.021982 0.19412 -0.78724 -0.53433 0.30971 0.30866 0.11534 -0.14057 -0.072873 -0.16024 -0.46469 -0.43632 0.11935 -0.096046 0.27642 -0.45956 0.78506 0.10535 -0.35903 -0.5045 0.17895 -0.12949 0.21215 -0.52681 -0.30377 0.30309 0.18373 -0.034368 0.20768 -0.037631 -0.79469 -0.33947 0.23544 0.048274 0.072565 -0.46884 -0.48394 0.53672 0.16307 0.28982 0.04569 -0.42804 -0.21302 0.021243 -0.01233 0.27843 0.37658 -0.083542 0.022059 0.073733 -0.24136 0.32623 0.061345 0.31839 -0.39023 0.2528 -0.14109 0.06145 0.75681 0.18897 -0.14129 0.11143 -0.13973 0.15072 0.16572 0.7574 0.47253 0.082346 0.13975 0.21917 0.31078 -0.0013732 0.022248 0.35984 0.77866 0.098129 0.083436 0.39772 0.18433 -0.0010052 -0.33896 -1.9438 -0.32935 0.21431 0.30243 -0.19871 -0.60044 -0.23977 0.14579 -0.2618 0.21566 0.20529 -0.13915 -0.1226 0.11318 -0.23183 0.054695 0.19355 -0.11338 -0.51758 0.75132 -0.036038 0.17158 -0.51488 0.44197 0.34672 0.16582 0.28415 0.37177 -0.49143 0.31154 0.15465 -0.2082 -0.40638 0.2128 -0.14604 -0.020645 -0.79973 0.28036 0.0016194 -0.43531 -0.21155 0.45542 -0.16568 0.16821 -0.1058 0.12658 -0.099646 0.028956 -0.28776 -0.62503 -0.21687 -0.14439 0.22226 -0.19392 -0.1031 -0.12425 0.71265 -0.01218 0.084148 -0.072219 0.58816 -0.30714 -0.19501 0.42095 0.0094264 -0.010671 -0.14123 0.21067 0.17126 -0.15888 0.26191 0.25832 0.15419 0.37499 0.22807 -0.031797
adventure -0.4264 0.49744 0.087303 -0.26832 -0.014472 -0.42894 -1.6124 -0.062111 -0.14848 -0.14642 0.31546 -0.6273 0.5059 0.4429 0.092572 0.22719 0.13928 -0.2525 0.63146 0.33143 0.3551 -0.0047034 -0.26314 -0.34929 0.19064 0.046187 -0.0497 -0.25752 0.085469 0.29016 -0.24073 -0.35201 0.23122 0.46654 0.11159 -0.38717 0.90505 -0.68803 -0.71747 0.36354 -0.076103 -0.24163 -0.42009 0.02115 0.030283 -0.4474 -0.071892 0.10622 -0.036255 -0.20594 0.11173 0.10284 0.4774 0.16709 -0.09253 -0.069891 -0.23914 -0.46054 0.44603 0.52492 -0.13781 -0.4657 0.45613 0.087603 -0.11524 -0.51579 0.30579 -0.29291 0.015313 0.023253 -0.57332 0.18659 -0.14849 0.11814 -0.70706 -0.10958 -0.089393 -0.16317 -0.12533 -0.082087 -0.075267 0.12586 -0.13559 0.018203 0.26746 0.1222 0.34838 0.51511 -0.34954 -0.32938 -0.55678 -0.34047 0.38226 0.31474 0.19682 -0.064706 -2.0951 -0.0070566 -0.1078 -0.28226 -0.23933 0.31806 0.32762 -0.1165 -0.065731 -0.34172 0.36778 -0.42346 0.41103 0.16858 -0.32741 0.0040787 0.41085 -0.26089 -0.34172 0.47136 0.042445 0.28548 -0.079835 -0.76336 0.70543 0.58237 0.46661 -0.44959 0.52234 1.1209 0.0063158 0.053212 0.28405 -0.055709 -0.17838 -0.58241 0.36154 -0.76464 0.71998 0.0363 0.10457 -0.68462 0.52574 1.1408 -0.15082 -0.083232 0.24933 0.049424 -1.1116 0.5978 -0.26152 0.39945 -0.040764 -0.12492 0.095424 0.31361 -0.022036 -0.032475 -0.14318 0.29837 -0.57281 0.16898 0.73593 0.27237 0.31419 -0.2558 0.24287 -0.10041 0.20731 0.79761 -0.42994 -0.012591 0.11546 0.52866 0.11377 0.28317 -0.31679 0.07976 0.069806 -0.47643 -0.23401 -0.41415 -0.47616 0.38295 0.14623 0.35334 -0.43209 0.14976 0.50818 -0.43971 0.26545 -0.3243 0.3206 -0.23824 0.062432 0.1565 -0.7114 -0.14883 -0.22425 0.77603 0.25934 0.028896 -0.1882 -0.24088 -0.36946 -0.36841 -0.78907 0.67932 -0.76306 -0.28981 -0.31842 0.0072856 0.53705 -0.30093 -0.0094727 0.075831 -0.36196 -0.037142 -0.29057 0.16341 0.26552 0.29127 0.37294 0.64317 0.12151 0.32314 0.0099044 0.14932 -2.7135 -0.17503 -0.12913 -0.13793 0.19946 -0.36697 0.31085 -0.047375 -0.14224 0.61346 0.7875 -0.042734 0.71554 0.34795 0.13221 0.84754 0.21941 -0.21168 -0.079525 0.4882 -0.050822 -0.0605 0.036699 0.51628 -0.085371 -0.12413 0.4308 -0.012433 0.030576 0.42784 -0.24567 -0.59196 0.55173 -0.00049656 0.54364 0.43288 -0.13358 0.34833 -0.098491 0.14045 -0.13543 0.278 -0.80083 0.33717 -0.10025 0.64938 -0.039257 -0.46534 0.017206 -0.39759 0.00037429 0.089148 0.19182 -0.16114 -0.42385 0.083998 -0.22253 0.013349 0.025938 0.44201 0.0097975 -0.44007 0.35874 0.22999 -0.57042 -0.33457 0.4772 0.4013 -0.078618 -0.18682 -0.095784 0.31911 0.51566 0.18616 0.1598 0.35769
hurt -0.12523 0.030487 -0.21309 -0.045528 -0.19972 0.020765 -3.0499 0.011923 -0.25418 -0.79347 0.171 -0.042265 0.27276 -0.64895 -0.053944 0.22861 -0.20439 -0.18314 -0.17709 -0.27958 0.24623 -0.2714 -0.14371 0.30162 -0.38038 0.12602 -0.075256 -0.50805 0.52176 0.73613 -0.22254 0.27148 0.0072094 0.467 0.093416 0.13277 -0.12535 -0.082808 -0.29163 -0.079275 0.4821 0.63179 0.42687 -0.058304 0.50999 0.53063 0.0896 0.027035 0.31996 0.17287 -0.40081 -0.83038 0.25664 -0.11349 0.24133 -0.28939 0.34547 0.020371 0.56093 -0.34826 -0.33455 -0.090201 0.50368 0.060084 0.42403 0.087114 -0.11573 0.036993 -0.19829 -0.56408 0.30985 -0.14139 -0.54168 -0.12374 0.25771 0.38525 0.30405 0.040964 -0.19409 -0.015319 0.20124 -0.66635 0.098561 0.35169 0.29513 -0.24892 0.16547 0.21237 -0.0072163 0.031249 0.3793 0.25095 -0.04615 0.28653 -0.18043 -0.011979 -0.93539 0.51265 0.35949 -0.061791 -0.27524 0.06967 -0.38864 0.31342 0.1572 -0.37014 -0.18916 -0.65667 0.22159 0.16057 0.18135 -0.0056195 -0.010302 0.015949 0.14999 0.040219 -0.72962 -0.51796 -0.25141 -0.0056761 -0.34592 -0.28072 0.030817 -0.16741 0.037648 -0.52745 0.34051 -0.16849 0.18777 -0.52771 0.24767 -0.21759 -0.030862 0.28956 0.61945 -0.24538 0.14029 -0.12497 -0.32663 0.54318 -0.35716 -0.45352 0.11828 -0.1773 0.22603 -0.20495 -0.36744 0.37129 -0.24824 -0.41331 -0.12461 0.32034 -0.37542 -0.12089 0.014534 -0.16736 0.076333 -0.17228 -0.42827 -0.17231 0.2877 -0.17353 -0.25436 0.17042 -0.214 -0.12044 0.21381 0.15204 0.23101 0.014912 -0.53894 0.227 -0.040369 -0.22169 0.55031 -0.1066 0.063346 0.022991 -0.48226 -0.6863 0.076142 0.0017595 -0.033191 -0.10426 -0.10458 -0.0088383 -0.039294 -0.32899 0.30295 -0.36323 0.2678 -0.21218 -0.18842 -0.13994 -0.1374 -0.61391 0.15043 -0.47403 -0.21338 0.28076 0.56269 0.00046833 -0.31505 -0.35647 0.22978 -0.0095246 -0.18392 0.23161 0.18864 0.25074 -0.029035 0.33745 0.5965 -0.10575 0.9417 -0.40051 0.12162 0.24809 0.30292 0.2578 -0.14951 0.33016 0.076749 0.20795 -1.7173 0.021135 0.037158 0.3219 -0.15557 -0.42277 0.26967 0.41008 -0.68182 -0.19929 -0.27796 -0.1218 -0.05685 0.31978 0.087824 0.030052 -0.38933 0.12703 -0.29567 0.21888 0.0015143 0.1591 -0.2457 0.45537 0.29592 -0.27551 0.0054148 0.0001417 -0.037089 0.19102 -0.13414 -0.082598 -0.05712 0.12641 -0.46316 0.3671 -0.019039 0.1634 -0.20226 -0.229 -0.17434 0.12814 0.62279 -0.36554 0.40838 -0.11829 -0.3462 -0.34789 -0.085294 -0.011229 -0.015034 -0.45259 0.098114 -0.083361 0.21801 -0.20992 0.81986 -0.36518 0.31695 0.11059 0.22392 -0.48554 0.15642 0.52991 -0.098181 0.25764 0.30921 -0.22059 0.15271 -0.085201 0.18401 -0.014853 0.2632 -0.2267 0.14407 0.14669
contemporary -0.10175 -0.13478 0.44672 -0.026521 0.14954 0.65434 -1.8627 -0.99018 0.17376 0.30913 0.06774 -0.18737 -0.49287 0.64254 -0.042271 -0.14957 0.14881 0.1603 0.15226 0.23701 -1.0051 0.64423 -0.48211 -0.26528 -0.091494 0.12616 0.51677 0.32427 -0.19365 -0.4155 0.23552 -0.40973 0.16874 0.81265 -0.040455 -0.11299 0.55641 0.33626 -0.069031 -0.18075 0.080444 -0.21645 0.25553 -0.37163 0.17243 -0.38773 -0.48074 0.14049 -0.019421 0.29391 -0.18611 -0.043924 -0.2096 -0.53671 -0.19792 -0.3087 0.031534 -0.63272 0.039257 -0.17274 -0.16154 -0.51366 0.011222 -0.11613 -0.21422 -0.13737 -0.15139 0.015151 0.19218 0.29606 -0.54947 0.09189 0.3777 -0.29517 -0.21824 -0.33035 -0.08713 -0.025869 0.62867 0.2637 0.53671 0.095865 0.2156 -0.28195 0.2699 -0.078402 0.13449 -0.058323 0.16286 -0.15459 0.25011 0.35835 0.42793 -0.20749 -0.489 0.30697 -3.321 -0.077732 0.056056 -0.66864 0.044863 0.13049 -0.24019 0.32514 -0.36645 0.92687 -0.7854 0.088236 0.23288 0.16084 -0.15969 -0.14382 0.7942 -0.2332 -0.16638 0.38207 0.57495 -0.013493 0.14688 0.012547 0.014945 -0.31992 -0.071338 -0.14167 0.024731 0.17197 -0.29382 0.16385 0.26222 0.15336 0.13746 -0.0031868 -0.36722 0.36051 0.10566 0.068919 0.16624 0.29121 0.056285 -0.37703 -0.2887 0.53072 0.10546 0.18165 0.028448 0.23888 -0.013578 -0.30848 0.72505 0.18219 -0.072957 0.26504 -0.064832 0.36803 -0.22091 0.66967 0.43476 -0.15861 -0.61436 0.31416 0.088057 0.08312 0.35552 -0.75276 -0.53076 0.17948 0.19987 -0.063597 0.077533 0.13665 -0.17715 -0.41519 -0.24105 -0.0017934 0.27246 -0.54213 -0.24535 -0.01642 0.014403 -0.059915 0.096053 -0.028654 -0.15832 -0.039456 -0.056513 -0.005184 -0.30696 -0.23066 -0.64185 0.20781 -0.080002 -0.30147 -0.11742 0.20711 0.359 0.71083 -0.27041 -0.14823 0.36764 -0.097652 0.021694 0.19033 0.5859 -0.23839 0.57681 0.15861 0.40867 0.15025 0.47395 0.55285 -0.36645 -0.29824 -0.51673 0.010472 -0.48807 -0.59219 0.31751 -0.45064 0.11893 -0.25413 0.11635 -0.85445 0.48281 -0.29075 -1.8278 -0.46637 -0.23837 -0.6621 0.041907 -0.078187 0.18861 0.13166 -0.0050025 0.36398 -0.32866 -0.060442 0.14924 0.28088 -0.2368 -0.3176 0.52973 0.05356 -0.0015555 -0.21593 0.75632 -0.31111 -0.59395 -0.30773 0.13078 0.17668 -0.50866 0.32208 0.17833 0.64124 -0.39625 0.5035 -0.13262 -0.43298 0.30939 0.35146 0.57867 0.0182 -0.27953 0.57013 -0.23959 -0.41718 -0.52103 0.41461 0.12644 -0.38198 0.021847 -0.026522 -0.91216 0.7484 0.30225 0.077511 -0.036486 -0.46847 -0.67332 0.073496 0.44965 0.48597 -0.21617 -0.0068893 -0.268 0.091868 -0.060376 -0.23954 -0.12387 -0.49946 0.22037 0.091176 -0.4943 -0.26377 0.30731 -0.50143 -0.066142 0.54164 0.095447 -0.1281
surprised -0.39389 -0.47285 0.12485 -0.29734 0.089827 -0.20624 -2.857 -0.35051 0.15908 -0.72876 -0.26174 -0.13529 -0.055086 0.17074 -0.21518 -0.054566 -0.12455 -0.30637 -0.19286 -0.3043 0.15306 -0.10558 -0.058888 0.030774 -0.21294 0.060749 -0.29714 0.029653 0.30868 0.24961 -0.22808 0.21888 0.13042 0.42572 -0.048929 -0.22795 -0.16419 -0.030958 -0.17529 -0.044128 -0.24127 -0.17052 -0.032673 0.15744 -0.053347 -0.057098 -0.24239 -0.355 0.56163 -0.24284 0.0037141 -0.17172 0.31909 -0.23669 -0.057355 -0.17887 0.37743 -0.3556 0.59982 0.038288 0.018864 -0.0121 0.41416 -0.10843 -0.053447 0.27513 0.032416 0.20754 0.12384 -0.69768 -0.12978 0.02873 -0.060475 0.049912 0.73079 0.13253 -0.27413 0.36968 -0.058354 0.3254 0.13254 -0.81396 0.068107 -0.12981 -0.34101 -0.24887 0.025419 -0.10732 0.2461 -0.24459 0.086069 0.26148 -0.1449 0.17821 -0.50552 -0.43268 -0.60371 0.25823 -0.09523 0.052791 -0.15498 0.2185 -0.28143 -0.19812 0.25797 0.088283 -0.32544 -0.63099 0.075501 -0.17511 -0.20361 -0.10642 -0.22479 0.059009 -0.28495 0.56115 -0.30276 -0.04332 0.20065 -0.24552 0.16132 0.021948 0.11836 0.32148 -0.090639 -0.17789 0.083555 -0.33007 -0.063064 0.20655 -0.27312 -0.039697 -0.10817 -0.15316 0.30542 0.30297 0.18603 0.13075 -0.11691 0.031384 -0.17039 0.060569 0.18638 0.032432 -0.041522 -0.12468 -0.40785 -0.044875 -0.11549 -0.081818 0.11106 0.2655 -0.46481 -0.083896 -0.27592 0.13853 0.050538 -0.073734 -0.26009 0.094461 0.1485 0.15871 -0.11291 -0.28504 -0.061581 0.11676 0.31156 -0.064399 0.094273 -0.057078 0.048871 0.25452 -0.22606 -0.22476 -0.43157 0.038397 -0.10702 -0.016919 -0.57891 -0.28304 0.37796 0.48037 0.1782 -0.029176 -0.37563 -0.0038274 -0.27963 -0.44308 -0.1749 0.12391 0.40112 0.02952 0.26556 -0.36168 0.13521 0.22695 -0.094358 -0.69956 0.26459 -0.20402 0.23076 0.22999 -0.13208 -0.02977 -0.6126 0.225 -0.024725 0.21242 0.4521 0.1399 0.51982 0.087762 0.25693 0.080145 0.3069 -0.036873 -0.098821 0.19049 0.18749 -0.29055 0.15036 -0.099149 0.37784 0.38106 -2.0222 -0.19506 0.36856 0.18705 -0.0038862 -0.30435 -0.19262 -0.16578 0.068993 0.16976 -0.11967 0.132 -0.071939 0.40297 -0.071884 0.017032 -0.0069471 0.32597 -0.53218 0.46663 -0.13115 0.096494 -0.59974 0.52385 0.31576 0.097625 -0.12274 0.077612 0.018753 -0.53522 0.25221 0.0699 0.15828 -0.10533 -0.35173 -0.17379 -0.56829 0.2943 0.36805 -0.55416 -0.53209 0.40166 -0.019444 0.1911 -0.023109 -0.053864 0.13522 -0.15578 -0.10562 -0.24557 0.097769 -0.050369 -0.10293 0.14061 0.0070222 0.14585 0.40429 0.00048105 0.25219 -0.099816 0.19105 0.24669 -0.35931 0.2621 0.10232 -0.23895 -0.27867 -0.32122 -0.013246 0.068487 0.088626 0.3003 0.035308 0.28886 0.38604 -0.56219
rush -0.59165 -0.13758 0.21194 -0.46371 -0.39432 -0.053658 -1.8397 0.091898 -0.47671 -0.5697 0.56373 0.29475 0.21255 0.56214 -0.067968 0.61706 -0.34265 -0.001408 0.31073 -0.17373 0.021258 0.092427 0.062428 0.023205 -0.70995 0.25843 -0.10927 0.17089 0.11138 0.44476 0.080888 -0.35761 0.33949 0.093177 0.35819 -0.16739 0.36725 -0.40716 -0.18053 0.10823 0.56094 0.66972 0.27005 -1.0934 -0.2722 0.1156 0.11655 -0.064617 0.42202 0.33636 -0.12982 0.029522 0.092658 -0.52637 0.14888 -0.44675 -0.42399 -0.39419 0.07849 -0.08304 -0.41288 0.15344 0.363 0.19114 -0.60018 0.064629 0.10268 -0.1727 0.52917 -0.21495 0.025913 -0.38926 -0.24601 0.41071 -0.11489 0.0054923 0.19085 -0.45543 -0.3239 0.16524 -0.12425 -0.10024 0.24584 -0.27824 0.3765 0.27727 0.16083 0.091749 0.12304 -0.21981 0.10207 0.043399 0.071836 -0.028648 -0.016073 -0.072548 -1.4486 0.0085569 0.25041 -0.43326 -0.34775 0.35369 0.20091 0.22194 0.069565 -0.36557 -0.39015 -0.022112 -0.028978 0.077639 0.43899 0.35136 -0.078233 -0.29587 0.15239 0.36844 -0.58005 -0.15606 -0.14235 -0.29278 0.18813 -0.22811 0.21224 0.52494 -0.68329 -0.01295 0.19692 0.25875 0.2855 0.062593 0.15943 0.3471 0.31134 -0.037728 0.086601 -0.31914 0.073093 -0.11135 0.32249 0.93622 -0.21116 0.42163 -0.29267 -0.13352 -0.37666 -0.19283 -0.21446 0.034562 -0.68646 0.30961 0.12483 -0.21011 -0.1746 -0.36087 -0.12646 0.13063 0.12037 -0.11537 0.12148 0.1561 -0.12578 -0.59378 -0.61867 -0.43087 0.12918 0.10945 0.4586 0.056751 0.10734 0.040463 0.046216 0.091362 -0.22926 0.030401 0.12869 -0.15005 -0.060198 -0.13907 0.34791 -0.079405 0.020759 -0.2687 -0.11446 0.16935 -0.29234 -0.023309 0.08032 -0.55442 -0.087669 0.0030557 -0.15442 -0.30149 -0.12745 -0.23397 0.10938 0.0035341 0.56195 -0.41424 -0.60759 -0.0082434 -0.10581 -0.3418 -0.25457 -0.1647 -0.38245 -0.1091 0.5495 -0.10711 -0.54166 -0.14431 -0.027351 -0.3519 -0.23375 0.45091 -0.17329 -0.058801 0.099409 0.34312 0.24551 0.036192 0.030064 0.14068 -0.42931 0.43397 -2.4311 0.064605 -0.64282 0.84783 -0.061242 -0.15503 -0.61501 -0.40575 0.19059 0.032143 -0.17455 0.56654 0.30338 0.011142 -0.29973 -0.47034 -0.37195 -0.46356 0.01994 0.63756 -0.087008 0.49449 -0.085345 0.23804 0.28804 -0.3435 0.016629 0.16284 -0.33743 -0.59139 -0.34458 0.23307 0.25168 0.11947 -0.14681 -0.39123 0.13631 0.17672 0.26505 0.23749 0.15173 0.2895 -0.26898 0.021271 -0.14949 -0.20113 -0.030285 -0.59599 0.22035 -0.1328 0.45247 0.19482 0.31422 0.18616 0.6373 0.11015 0.44431 -0.35894 -0.48037 0.13527 -0.33476 -0.077109 -0.13743 0.31738 -0.35768 -0.019187 0.89907 -0.48503 -0.39048 0.28072 -0.01611 0.28754 0.12516 0.26663 -0.22612 -0.27836
stunning -0.10811 -0.21681 -0.26105 0.13028 0.083178 0.025592 -2.109 -1.1832 0.38301 -0.53851 -0.39835 -0.42636 0.23568 0.46874 -0.70041 -0.67361 -0.64021 -0.44657 -0.27948 -0.20349 -0.20057 0.15072 0.28939 0.086973 0.3416 0.61628 0.46679 0.33168 -0.47931 0.76943 0.39974 0.095243 -0.01586 0.54503 0.011965 -0.15203 0.42535 0.11313 0.44608 -0.36088 -0.41729 -0.31636 0.23446 0.014198 -0.2087 0.012474 -0.35058 -0.66972 -0.17629 0.012036 0.016832 0.26891 0.091703 -0.023323 0.14163 0.41534 0.031872 -0.57033 0.79228 -0.38702 0.19541 -0.16571 0.63792 0.31598 -0.55258 -0.51596 0.082447 0.22667 -0.25023 -0.058168 -0.42294 0.17562 -0.29464 0.13511 0.096821 -0.43409 -0.405 0.07931 -0.096548 0.71507 0.068543 0.24773 -0.041689 -0.19308 -0.16778 -0.012507 0.2529 -0.32147 -0.36936 0.11606 -0.15959 0.17629 -0.046837 0.29886 0.046869 -0.033595 -1.8944 0.27081 -0.038782 -0.43072 -0.021876 -0.030196 0.34657 0.16704 -0.39855 0.49276 -0.61816 -0.025507 -0.18064 -0.35963 -0.55574 -0.099498 0.061397 -0.18031 -0.7532 -0.14739 0.28462 -0.018598 0.35195 -0.38215 -0.25353 0.014989 0.52024 -0.040777 -0.026618 -0.08904 -0.1177 0.18469 -0.057929 -0.17774 -0.0034685 -0.24783 -0.063551 -0.26216 -0.2309 0.14032 -0.054564 -0.52547 0.18561 0.37527 -0.019712 0.59529 0.021951 -0.18179 -0.45194 0.15701 -0.11841 0.065621 0.58115 0.17334 0.15524 0.18722 0.22499 0.20757 -0.60074 0.1223 0.14354 -0.065482 -0.66823 0.14385 0.70733 0.14785 0.78142 -0.078933 -0.10512 0.2675 -0.01416 0.17887 0.29954 0.22959 0.3174 -0.26702 -0.53323 -0.47692 0.31384 0.02233 -0.15952 -0.36063 0.11896 0.0067309 0.25159 -0.24598 0.15678 -0.041839 0.29343 0.17932 0.24508 0.29815 0.15677 -0.43913 -0.057996 0.051127 -0.53028 0.30772 0.079575 0.45488 -0.032265 0.27642 0.31365 0.51668 -0.36137 -0.47147 0.53382 -0.3715 -0.75625 0.19961 -0.15386 0.65343 0.15274 0.10682 0.18949 0.0071732 -0.0043237 0.01219 -0.17338 -0.029648 0.15511 -0.29618 0.32459 0.0658 0.48784 -0.34574 0.32716 0.367 -2.2286 -1.0652 0.56013 -0.45891 -0.64521 -0.12053 0.44853 -0.23433 -0.10052 -0.52099 -0.2017 -0.20087 -0.61355 -0.3148 -0.12747 -0.17498 0.44451 -0.20155 0.064403 -0.20553 -0.28047 -0.013749 -0.00038147 0.38421 -0.20148 -0.14013 0.080205 0.17374 0.067658 -0.43229 0.051039 -0.11343 0.12551 -0.50665 -0.53267 -0.19454 -0.081273 0.17256 0.046789 0.20004 0.26664 -0.59508 -0.82449 0.44417 0.022814 -0.064043 0.056985 0.031686 -0.46281 0.20456 0.41273 0.046462 0.072919 -0.15539 -0.65589 0.16617 0.66115 0.17222 -0.035461 -0.44442 0.32257 0.11565 -0.15408 -0.11004 -0.11315 0.14262 -0.31805 -0.33912 -0.37334 -0.31103 0.34445 -0.01529 0.25797 -0.0097414 -0.35769 0.09545
wildlife -0.082214 0.17995 -0.85781 0.17753 -0.031421 0.63032 -1.595 -0.56154 0.0519 0.34194 0.20492 -0.18083 -0.1414 -0.52742 0.16005 0.016732 -0.1271 0.022851 -0.19546 -0.038591 0.23066 -0.66282 0.25065 -0.66591 0.034091 0.52957 -0.71519 0.18498 -0.42367 -0.1162 0.087164 -0.0092891 0.31232 0.375 0.0071798 -0.56222 0.40053 -0.71106 -0.60711 -0.43726 -0.29574 0.26037 -0.3095 0.49111 -0.048413 0.59927 -0.4865 -0.32593 -0.033404 -0.49818 0.017557 0.422 0.1352 0.3964 0.67162 0.1982 0.33599 -0.27748 -0.23784 -0.062845 -0.059835 -0.14979 -0.54461 0.3817 -1.2941 -0.37784 0.11154 0.5396 0.0010657 -0.65707 -0.71463 -0.14511 0.45147 -0.16591 0.40658 -0.21253 -0.27633 -0.40204 0.40126 0.59358 -0.096731 0.14993 0.02154 -0.18215 0.25475 0.039387 0.036457 -0.19743 0.25282 -0.40307 0.028931 -0.35205 0.40228 0.63727 0.13887 -0.87045 -2.1674 0.21029 -0.82632 -0.83464 -0.065804 0.44363 0.1787 -0.044434 -0.74553 0.4718 0.18195 -0.11647 -0.24418 0.078563 -0.043218 0.44213 0.33106 0.16579 -0.36303 -0.55205 -0.41602 0.2645 -0.66517 -0.42802 0.39579 0.32073 0.14351 -0.4464 0.5372 0.11049 -0.098471 0.42321 -0.49162 -0.91178 0.3391 -0.44718 0.2494 -0.16347 0.52744 0.14354 0.17938 -0.60281 -0.2383 0.20349 -0.92324 -0.37546 -0.60636 -0.20676 -0.94434 0.012937 0.23101 0.39779 1.2857 -0.79785 0.00035886 0.097811 0.0066719 0.17525 -0.52138 0.46017 -0.41711 0.025922 0.12371 0.44856 0.43132 -0.15913 -0.14685 -0.30855 -0.38176 0.44198 -0.40119 0.1376 0.0029379 -0.0069343 -0.48621 -0.16275 0.019035 0.66063 -0.018249 0.24692 -0.066643 -0.52497 -0.38219 0.21379 0.37025 -0.17173 -0.28211 0.19472 0.16186 -0.072504 0.88671 0.9197 0.3501 -0.24999 0.010327 -0.483 -0.26613 -0.58531 -0.31705 -0.29953 -0.27314 0.040925 -0.59796 -0.075172 -0.0936 -0.47494 -0.64828 0.17192 -0.4276 0.65717 0.6487 1.3911 -0.40065 0.33858 -0.80437 0.60156 0.4291 0.061024 0.25148 0.12072 -0.061284 0.53979 -0.18904 0.3003 -0.55443 0.37273 -0.16491 0.20045 -2.1402 -0.38683 -0.13255 0.50891 -0.53364 -0.26354 0.51926 -0.37695 -0.18779 0.069966 0.37571 -0.055428 -0.088235 0.098845 0.32548 1.0539 0.54719 0.35482 -0.91023 -0.80129 -0.050596 0.002104 -0.18221 -0.064317 0.36728 -0.088785 -0.14251 -0.14632 0.48416 0.81966 -0.23361 0.22069 -0.62828 -0.41815 0.48005 0.0052671 -0.6507 -0.17071 0.13976 0.17505 0.029785 0.01424 -0.66937 0.020173 0.3091 0.04754 -0.12326 0.035365 0.50471 0.17499 -0.26837 0.52968 -0.010472 -0.36649 0.15239 0.090401 0.13772 0.14084 -0.30934 -0.35117 0.020151 0.1621 -0.43255 -0.45228 0.14428 -0.080413 -0.30021 0.26316 -0.40083 -0.21182 0.46316 0.21362 0.78668 -0.23424 0.20643 0.9116
angry -0.65578 -0.045224 -0.23556 -0.13263 0.053929 0.012733 -2.666 0.021684 0.26952 -0.56943 0.82278 -0.35999 -0.58405 -0.10389 -0.09576 0.14793 -0.19821 -0.28492 -0.75062 -0.5963 -0.070819 -0.17568 0.15997 -0.017815 -0.51925 0.18956 -0.47013 0.038905 0.19435 0.41397 -0.11318 0.22284 0.35915 0.49021 0.10857 -0.28699 0.087215 -0.68722 -0.073315 -0.11763 0.37386 0.16839 -0.0087745 0.093983 -0.27054 0.3517 0.55995 0.035901 0.13532 -0.12433 0.092126 -0.65391 -0.0082557 -0.26649 -0.074288 0.4154 -0.070556 0.17934 0.74977 -0.16136 -0.21188 -0.032037 0.39989 -0.1214 -0.0015653 0.20455 -0.24652 0.32844 0.036509 0.021409 0.002212 -0.18542 -0.30505 0.049786 0.51639 -0.31798 -0.13004 -0.066247 0.19354 0.12248 0.27504 -0.59101 0.026023 -0.4881 -0.13679 0.17748 0.31185 0.15931 0.039824 -0.18465 -0.24885 0.11478 0.35258 -0.15018 0.23555 -0.43925 -0.9197 0.0043071 0.65352 -0.12344 -0.45168 0.47813 -0.63477 0.128 0.19573 0.19186 -0.064472 -0.6857 -0.12394 0.58698 -0.054622 0.77799 0.25985 -0.026864 0.24242 0.30394 0.052617 -0.68114 -0.21221 0.090735 -0.19699 0.16099 -0.012076 0.7842 -0.33348 -0.23688 0.077039 -0.3716 0.1676 -0.21642 0.01258 -0.11554 0.18163 -0.11792 0.0025951 0.25058 0.51533 -0.076194 0.18043 0.56525 -0.027208 0.19399 0.023502 0.058179 0.15449 -0.90201 -0.41808 0.44236 -0.3894 -0.40016 -0.031724 0.32888 -0.74354 0.19583 -0.23931 0.11596 0.24314 0.079517 0.70322 0.32616 -0.025247 0.011308 -0.75628 0.036274 -0.19879 0.21825 0.030219 -0.09287 0.28902 -0.049103 -0.18535 -0.13245 -0.16197 -0.28346 -0.015861 -0.36797 -0.18864 -0.014313 -0.26088 -0.22301 0.68951 0.4442 0.45855 0.0020284 0.11526 -0.1021 -0.23694 0.004658 0.10801 -0.090107 0.192 -0.19337 -0.19812 0.33238 -0.15963 -0.35207 0.052048 -0.58236 -0.35233 -0.44957 -0.16367 0.32624 0.61754 0.069749 -0.66694 -0.048798 0.091034 0.1837 0.43795 0.30663 0.16777 0.20843 0.19167 0.076175 -0.36571 -0.25831 0.30137 0.42848 0.48293 0.19742 -0.1018 0.2374 -0.23336 0.27631 -1.4592 0.014035 -0.01294 0.29596 -0.52905 -0.28307 -0.013923 0.66081 0.17098 0.077036 0.24761 -0.23049 0.22704 -0.051708 0.17887 0.32659 -0.78603 -0.098038 0.27308 1.1779 -0.48602 0.029098 -0.9147 0.5431 0.41546 0.22777 -0.080951 -0.14883 0.27208 -0.22249 0.39468 0.25152 -0.41251 0.54965 -0.03976 -0.19049 -0.53959 -0.17574 -0.12437 -0.051689 -0.56894 0.63144 0.10697 0.25375 0.10535 0.025621 0.42709 -0.34896 -0.39143 0.36242 -0.31575 -0.2261 -0.17027 0.32131 0.38949 -0.35092 0.64355 -0.506 0.36935 -0.060827 -0.22486 -0.66302 0.12464 0.49873 0.083692 0.22112 -0.12153 -0.074482 0.034244 -0.24023 -0.26634 0.44645 0.04434 0.1091 0.319 -0.57793
guilty -0.32023 -0.38852 -0.71565 0.17102 -0.45542 0.34475 -2.4419 -0.44786 -0.67429 -0.67432 0.1673 0.18746 -0.37596 -0.29969 0.20503 1.011 -0.1386 0.3961 0.48414 0.2168 0.072306 -0.019431 -0.11445 0.28436 -0.12305 0.62435 -0.55024 -0.42315 0.52867 0.44225 -0.42411 0.22505 -0.2511 0.34656 0.44558 -0.65876 -0.58244 0.13299 -0.0078807 0.092378 -0.25447 0.57515 -0.53316 0.47657 -0.040741 0.097025 0.028495 0.03527 0.22245 0.46896 0.32654 0.12572 0.15058 0.15524 -0.30085 -0.41577 0.17109 0.51889 0.43944 0.39963 0.16327 0.32353 0.34938 -0.46375 -0.057362 0.34036 0.7283 -0.1069 0.055864 0.27522 0.8726 0.3466 0.17827 0.063963 0.64279 0.55117 -0.0921 -0.35622 -0.43494 -0.32471 0.15842 -0.84482 -0.083729 -0.25158 0.39645 0.49002 0.061667 0.20961 0.22382 0.1465 -0.078498 0.15412 -0.42626 0.57969 0.43604 0.30156 -0.93222 -0.63021 -0.25889 0.30026 0.22376 -0.096386 -0.57446 0.078915 -0.46731 -0.23511 -0.29803 -0.25086 0.52632 -0.098875 0.089198 -0.24682 0.5804 0.33014 -0.41248 0.26514 0.088742 -0.2237 0.20407 -0.086738 -0.5534 0.016788 0.23314 -0.51669 0.19776 -0.4846 -0.1093 -0.46157 -0.31968 0.33517 0.39112 0.002322 -0.17179 -0.0062071 0.70896 0.15104 0.68635 0.036841 0.27847 0.14932 -0.49564 -0.54215 -0.45018 -0.64871 0.45105 -0.39377 0.042766 -0.17727 0.51078 -0.03315 -0.12818 0.52717 0.52965 -0.239 -0.20766 -0.012071 0.13984 0.24071 -0.10396 -0.27419 -0.018295 0.45021 -0.17957 0.19429 0.14218 -0.14139 0.65561 0.11293 -0.081672 0.22181 -0.45344 -0.34271 0.20816 -0.089221 -0.53147 -0.27838 0.084227 0.33752 -0.11038 -0.22047 0.45047 -0.14584 -0.17345 -0.13123 -0.51283 -0.15263 -0.55111 0.11623 0.18827 -0.2103 0.1653 0.16373 0.23802 -0.41444 0.070986 0.37658 0.081988 0.14765 0.24028 -0.15845 -0.40604 0.26423 -0.39824 0.03876 -0.16753 -0.2866 -0.30786 -0.24653 0.23582 -0.45988 0.01191 0.015059 0.23783 0.33787 -0.16197 0.034129 -0.12338 0.1465 -0.024189 -0.17934 0.030569 0.05448 0.044238 0.41735 -1.8099 -0.2777 0.083676 0.31749 -0.028795 -1.1864 -0.29554 0.51644 -0.045523 0.027996 -0.054616 -0.50599 -0.030089 0.30015 0.67234 -0.579 -0.88468 -0.18397 0.1602 0.68783 -0.085168 0.063883 -0.4068 0.26451 0.43475 -0.074107 -0.054969 0.37707 -0.49109 0.0415 0.063858 0.073376 -0.27675 0.13108 0.26233 -0.094398 -0.8591 -0.47844 -0.22637 0.26584 -0.086298 0.38765 0.12856 -0.3692 0.32706 0.34772 -0.20193 -0.071017 -0.23408 0.21611 0.19617 -0.63745 -0.78093 -0.17181 0.12936 -0.063308 0.13931 -0.56616 0.21192 -0.020585 -0.23017 0.34313 0.47758 0.80941 -0.23102 0.11075 0.094002 -0.75669 -0.45607 -0.18479 -0.27835 0.092563 0.48633 -0.62191 -0.0050147 -0.42765
curious -0.49751 -0.37316 -0.2093 -0.22425 0.24426 0.038337 -2.4257 -0.046463 0.24889 -0.63726 -0.12514 -0.42838 -0.3436 -0.032187 0.024153 -0.2732 -0.35437 0.037454 -0.15391 0.094614 0.037025 -0.085718 -0.21246 -0.12531 0.013744 0.29272 -0.33438 0.28524 0.45125 0.19314 0.0063937 -0.11776 0.2334 0.28047 -0.13282 -0.18525 -0.0057356 0.06423 -0.2013 0.17773 -0.43722 -0.58422 -0.23436 -0.15671 -0.59247 -0.070608 0.095313 -0.27475 0.37258 -0.24112 -0.14046 -0.22421 0.30621 -0.20066 0.55135 -0.2028 0.49586 -0.14633 0.4547 0.55936 -0.015517 0.15702 0.1417 0.11296 -0.077685 0.065279 -0.23741 0.0013959 0.043117 -0.5592 0.057063 -0.031471 -0.29541 -0.049819 0.19677 -0.79107 -0.45995 0.033257 0.17149 0.19682 0.25111 -0.49695 0.22519 -0.053797 -0.020612 -0.13129 -0.10535 -0.39418 0.27176 0.26709 -0.046121 -0.17641 0.017328 0.12273 -0.16204 -0.07751 -1.4789 0.081455 -0.14111 0.028519 -0.16179 0.16518 -0.49147 -0.24899 0.18535 0.062142 0.01007 -0.64002 0.099261 -0.03421 -0.01572 -0.36517 0.013234 0.28324 -0.20225 0.68154 0.64295 -0.2691 0.29128 -0.062301 0.40627 0.029028 0.70656 0.48501 0.37805 0.015947 -0.10582 0.29755 -0.19555 0.3467 -0.12652 0.24131 0.16063 -0.20143 0.12724 -0.17121 0.28319 -0.15921 -0.069444 0.38884 -0.24978 -0.072422 0.29297 -0.11057 -0.32833 -0.54876 -0.38372 -0.099407 -0.059004 -0.0086846 0.34335 -0.028788 -0.32707 -0.13019 -0.12667 0.43325 -0.12626 -0.12809 0.096984 0.18995 0.34811 0.37775 -0.40488 0.056924 -0.5567 0.38425 -0.28786 -0.58445 -0.15872 0.14336 -0.39279 0.033692 -0.09817 -0.093006 -0.2043 0.099081 0.066501 -0.23454 -0.33231 -0.16575 0.40396 0.55981 0.20348 -0.11347 -0.54866 0.14508 0.11886 -0.37497 -0.038853 -0.17111 0.1421 0.37779 0.016136 -0.040709 -0.0048735 0.49627 0.064873 -0.74307 0.083475 -0.075457 -0.24988 0.018687 -0.29289 0.1113 -0.25971 0.18085 -0.0011672 -0.21935 0.75939 0.37347 0.22671 -0.51338 0.12844 0.02369 -0.11792 -0.63351 0.063794 0.010606 0.060033 0.6747 0.14705 -0.071555 -0.10548 0.32206 -1.23 -0.32717 -0.15872 -0.081767 -0.013532 -0.54165 0.026787 0.048206 0.54557 0.56964 0.1396 -0.13629 0.13003 -0.058511 0.331 0.36115 0.20102 0.081195 -0.25348 -0.075815 -0.09343 -0.22869 -0.43983 0.33395 0.53886 0.22627 -0.14495 0.60151 0.21142 -0.032423 0.26456 -0.10585 -0.011648 0.20216 0.090441 -0.14944 -0.70854 0.10319 0.24832 0.013977 -0.28432 0.6032 0.033478 0.5569 0.25264 0.33831 -0.0063302 -0.1875 -0.088322 -0.31297 -0.35649 0.19497 0.12442 0.061711 -0.29356 0.24881 0.53099 -0.015585 0.36166 -0.25791 0.094011 -0.14993 -0.086342 0.10305 -0.17763 -0.19738 -0.50317 -0.19589 -0.057348 -0.06517 0.027114 0.24079 0.37981 0.13877 0.37272 -0.46554
worried -0.21252 -0.18767 -0.22463 -0.021036 -0.12204 0.19534 -2.9494 0.005876 0.037561 -0.55661 0.30906 0.43421 -0.11099 -0.36206 -0.1846 0.42463 -0.24296 -0.18797 -0.32611 0.017814 0.066378 0.081889 -0.0028137 0.099125 -0.6333 0.20138 -0.1018 0.13534 0.3453 0.013061 -0.38006 -0.03117 0.13137 0.6021 0.45005 -0.10808 -0.45385 -0.18615 -0.16257 -0.098431 0.00083286 -0.047189 0.54935 0.010088 -0.22938 0.31571 0.069141 -0.046245 0.10872 -0.27346 -0.20029 -0.061827 0.21297 -0.05764 -0.010285 -0.33375 0.49106 -0.18423 0.57338 0.07075 -0.37742 0.22236 -0.28359 0.024023 0.28418 0.26072 0.11987 0.084518 -0.21651 -0.5744 0.033051 -0.19781 -0.069435 0.24639 0.57433 0.0019836 0.29397 0.48235 0.115 0.23538 0.19616 -0.85252 -0.19732 0.10235 0.10407 0.19197 0.24153 -0.02696 -0.035576 0.12674 0.049443 -0.027818 -0.070428 0.28515 0.11271 -0.74811 -0.72244 0.64129 -0.065537 0.04484 -0.28976 0.092614 -0.75078 -0.080993 0.11378 0.0071177 -0.30032 -0.44691 -0.088619 -0.048038 0.20035 -0.14023 0.06338 0.15447 0.063042 0.13463 -0.40241 -0.51801 0.062237 -0.21874 0.16425 0.20133 0.21488 0.0081044 -0.1375 0.00071137 0.41503 -0.16934 0.032081 -0.19127 0.23396 0.019452 0.26385 0.070846 0.0937 0.052571 -0.10835 0.3605 -0.22641 0.11443 -0.12258 -0.22332 0.05877 0.46488 0.09756 -0.56241 -0.4672 0.43099 -0.47981 -0.10248 0.039214 0.30115 -0.3846 -0.12643 -0.28134 0.31225 0.22424 0.0078029 -0.036301 0.071611 -0.099012 0.24477 -0.42917 0.075309 -0.11078 0.14379 0.30086 -0.1886 0.19671 -0.11627 -0.12586 0.32023 -0.17961 -0.14678 -0.33057 0.19776 0.032808 0.26696 -0.51651 -0.0071136 0.20374 0.10178 0.3523 0.04688 -0.6391 0.20383 -0.15859 -0.31008 -0.15097 -0.020907 0.18549 -0.22629 0.059534 0.2589 0.1666 -0.1648 -0.11227 -0.49856 -0.21757 0.0030812 0.13491 -0.026708 -0.24705 -0.26212 -0.1846 -0.093887 0.020094 -0.092044 0.41543 -0.13878 0.038766 0.30953 0.31345 -0.16173 0.20987 -0.57169 -0.028611 -0.078335 0.17657 -0.30431 0.00024935 0.23692 -0.0050046 0.31053 -1.2659 0.0093308 0.3335 0.021115 -0.15153 -0.55436 -0.18028 0.49123 -0.35759 -0.1019 -0.28769 -0.32265 0.28054 0.010301 0.23921 0.15708 -0.6131 0.17543 -0.59347 0.29585 0.064431 -0.0066966 -0.50853 0.45528 0.31273 -0.11104 0.010533 0.22292 0.093593 0.011324 0.19574 0.1423 0.080901 -0.018579 -0.22429 0.03146 -0.48868 -0.027823 0.12957 -0.43371 -0.5078 0.23701 0.36311 0.1681 0.34769 0.33974 0.26676 -0.56418 0.068041 -0.54211 -0.25344 -0.22638 -0.015125 0.13651 0.22182 -0.03247 0.58118 -0.28142 0.76195 -0.35296 -0.14797 -0.19926 -0.22718 0.76619 0.13045 -0.49806 -0.24635 -0.22759 -0.031604 0.12834 -0.014302 0.083329 0.24368 0.019049 0.55148 -0.43625
confident -0.0036759 0.74177 0.12763 -0.019399 0.05398 -0.26975 -3.0966 -0.25203 0.19234 -0.19746 -0.30001 -0.55391 0.069719 -0.14136 -0.14885 -0.12026 0.30562 0.013742 -0.63658 -0.24671 -0.158 -0.083839 -0.19416 0.2897 0.27127 0.039374 0.18767 0.49964 0.44214 0.02811 -0.53452 0.31768 0.071475 0.082081 0.26998 -0.60278 -0.27762 0.3359 -0.31878 0.4322 -0.254 0.17512 0.82461 -0.019836 -0.30461 -0.18559 0.35375 -0.21499 0.031122 -0.26225 0.54593 -0.12086 -0.21943 -0.52512 -0.045141 -0.22801 0.40917 -0.55879 0.15193 -0.25959 0.19672 0.035924 0.29435 -0.12778 -0.053439 0.37776 -0.23709 0.5287 -0.012565 -0.36621 -0.16246 -0.13415 -0.30436 -0.35282 0.040528 -0.26209 -0.18313 -0.022343 0.050814 0.10043 0.195 -0.46749 -0.1588 0.18971 -0.56216 -0.1125 0.21086 -0.18275 -0.032872 -0.20203 -0.18711 0.08456 -0.17904 0.26557 0.0079726 -0.3171 -1.6155 0.63902 0.31928 0.3861 -0.58187 0.23622 -0.65527 -0.052268 0.36496 0.16051 -0.41403 0.27917 0.21149 -0.26454 -0.33243 -0.16531 0.22529 0.257 -0.26414 0.24323 -0.32931 -0.15208 -0.060951 0.26271 0.5241 0.13554 0.40301 0.0075972 -0.10603 -0.41771 0.093056 0.20947 -0.21369 0.31869 0.084476 -0.063826 0.11067 -0.47243 0.018553 0.27757 -0.039 0.36896 -0.012177 -0.20685 -0.28597 0.029929 0.089735 0.19158 -0.12279 0.033316 -0.88216 0.10432 -0.17997 0.10966 0.44093 0.25871 0.038735 0.073482 -0.5751 -0.14913 0.084932 -0.059111 0.10088 0.1398 0.4928 0.43829 -0.24591 0.3579 -0.011537 0.078044 0.46498 -0.069756 0.03554 -0.37523 -0.35537 0.097941 0.0041896 -0.1532 -0.50445 -0.067984 -0.34654 0.070195 -0.25364 -0.28582 0.38808 0.29686 0.041186 0.0058728 -0.35182 -0.010112 -0.30865 0.57311 -0.22036 -0.015984 -0.024142 0.55304 -0.16104 0.45337 0.14932 0.39375 0.22372 -0.49502 -0.059745 0.14643 0.2647 -0.37279 -0.32495 -0.086336 -0.43861 -0.39939 0.18942 0.22297 -0.1476 -0.19978 -0.045514 -0.093317 0.13264 0.091568 0.028875 -0.20191 -0.18858 0.15073 0.23906 -0.82246 0.050202 0.11371 0.31023 0.098462 -0.79381 -0.13762 -0.41298 -0.01301 -0.48291 -0.36004 0.12758 0.029539 0.11373 -0.53006 0.092686 -0.13815 0.12397 0.40798 0.40706 0.065772 -0.33119 -0.15905 -0.45471 0.66615 -0.10056 -0.25669 -0.63496 0.32774 -0.37249 -0.049243 0.22169 -0.0028708 -0.25891 -0.76323 0.67178 -0.052095 0.11594 -0.13336 0.0035452 0.61929 -0.25202 -0.14758 -0.034468 0.19729 -0.39004 -0.14694 -0.030824 0.036236 0.21915 0.28224 -0.052222 0.00042036 -0.38469 -0.020576 -0.12841 0.26829 -0.14299 -0.12376 -0.12122 -0.16489 -0.29363 -0.14767 0.41913 0.048954 0.24418 0.61251 -0.33138 0.29764 -0.48319 -0.22849 -0.34291 -0.221 0.024555 0.0042611 0.28721 0.2284 -0.20936 0.063711 0.52127 -0.64325
bold -0.17022 0.1582 0.69411 0.19877 0.31177 0.34935 -2.1212 0.21694 -0.22219 -0.36913 0.33281 -0.44646 0.47533 0.051085 0.010446 -0.352 0.12933 0.22846 -0.56763 -0.28935 0.44602 0.1303 -0.11398 0.52636 0.74285 0.25836 0.063294 0.095819 0.19153 0.10935 -0.066231 -0.24628 0.27079 -0.044169 0.41802 -0.43993 0.094817 0.21023 -0.14949 0.19539 -0.13887 0.21486 -0.13324 -0.46977 -0.52554 -0.12282 -0.041495 -0.66226 0.026534 -0.182 0.10489 -0.23286 -0.26141 -0.31005 0.88178 0.31488 0.021723 0.062892 0.70699 -0.22367 0.0832 -0.35948 -0.31782 0.24849 -0.12064 -0.69292 -0.18442 0.20454 -0.3855 0.0096755 -0.13504 -0.55181 0.029488 -0.49066 -0.27483 -0.69767 -0.21091 0.2486 -0.18783 0.3098 -0.040563 0.052836 -0.11662 -0.4061 -0.11802 -0.39624 -0.030427 0.44875 0.010362 -0.36439 0.63568 0.02786 0.29179 -0.33948 0.19098 -0.025904 -2.0192 0.76158 -0.16878 0.040082 0.05131 -0.035791 0.045471 0.54447 -0.23068 0.5539 -0.034529 0.95831 0.99199 0.43136 -0.11834 0.34743 0.32517 -0.28788 -0.25591 0.78306 0.70595 -0.45663 0.1414 0.19649 0.6664 -0.01437 0.69219 -0.37344 -0.25549 -0.59927 -0.4094 -0.37594 0.37477 0.41406 -0.044456 0.37458 -0.58255 0.047358 -0.057391 0.024629 0.44015 0.2366 0.64924 0.48966 0.19876 0.9272 0.05912 -0.2455 0.25568 0.42115 -0.37097 0.52851 0.21904 -0.22862 0.37986 0.42316 -0.32392 0.31114 -0.46082 0.65801 0.51844 0.0055983 -0.015214 -0.016404 0.045718 0.50474 -0.22621 -0.0017238 0.2957 -0.077139 0.0035543 -0.14678 -0.06385 0.24811 -0.48361 0.61569 -0.040055 -0.2121 -0.41167 0.22938 0.17884 0.062318 0.32576 0.3366 0.10766 -0.17784 -0.40688 0.013354 0.28972 -0.15357 0.020095 -0.2641 -0.072073 -0.078975 0.15335 0.29334 -0.19092 0.83414 0.22612 0.69694 -0.79264 0.50078 0.077492 -0.65089 -0.20049 -0.15298 0.28584 -0.24255 -0.5827 -0.96386 -0.050669 -0.16917 0.74679 -0.5554 0.14891 0.17914 0.18277 0.62071 -0.15223 -0.49148 0.32931 0.19986 0.43533 -0.22225 0.31674 -0.50147 0.082048 0.87568 -1.3545 -0.047545 0.31866 -0.17808 -0.17664 -0.023587 0.30236 0.12308 0.1623 -0.39276 0.45536 0.071269 0.017289 0.43062 -0.24445 -0.34024 0.015677 0.415 -0.28038 0.0345 -0.20321 -0.10502 -0.12622 -0.06829 -0.23023 0.27926 -0.2976 -0.10431 0.36608 -0.78144 0.25068 0.047352 -0.26648 -0.011969 -0.00064502 0.13058 -0.46857 0.17545 -0.14275 0.88408 -0.6514 -0.0098952 -0.72282 -0.34535 -0.049349 -0.60972 -0.45313 0.20985 -0.21463 -0.21874 -0.031916 0.0019506 0.23771 -0.18213 -0.42996 -0.13528 0.15705 0.53233 -0.041737 -0.16511 0.22759 0.44332 -0.43657 0.36087 -0.47148 -0.057642 -0.21325 -0.47098 -0.012418 0.27128 0.15733 0.050661 -0.10368 -0.48339 -0.31232 -0.18286
exceptional 0.21293 0.31438 -0.36642 -0.28782 0.2832 -0.061505 -2.7779 -0.75862 0.20711 -0.013964 -0.53157 -0.42784 0.19956 0.30735 -0.15587 -0.27561 -0.092395 -0.50851 -0.030281 -0.43192 0.16195 0.34812 -0.075395 0.2482 -0.051755 -0.049509 -0.020705 0.063242 -0.27176 0.30185 -0.025658 0.2143 -0.20331 0.11722 0.052676 -0.11047 0.15148 0.15778 0.10805 -0.48198 -0.034174 -0.083802 -0.20077 -0.22912 0.13099 0.056945 0.13523 -0.18457 0.053744 0.34795 0.057115 0.42244 -0.18591 0.091845 -0.047091 -0.29646 0.12573 -0.62763 0.018121 0.32791 0.16848 -0.15583 0.38179 0.21615 -0.22748 -0.38712 0.20602 0.11862 -0.080949 -0.063705 -0.13256 0.047948 0.019311 -0.033723 -0.34024 -0.091762 -0.34745 0.011639 -0.40747 0.068446 0.04154 0.24431 -0.2946 -0.10419 -0.45762 -0.063074 -0.22328 -0.32596 -0.069866 0.19124 0.061946 0.074249 0.0040739 0.33138 -0.30162 -0.36502 -2.4439 0.010622 0.020293 0.1552 0.082516 -0.3617 0.52558 -0.10649 0.30813 0.81534 -0.37416 -0.28881 0.023563 -0.029966 -0.25407 -0.38218 0.018125 0.013976 -0.071852 -0.16865 -0.31913 0.3163 0.32827 -0.25134 -0.081461 -0.11279 -0.34503 -0.37619 0.068642 0.13286 0.16818 0.11085 -0.0078679 0.22417 0.13893 -0.13404 -0.11493 -0.29639 -0.20335 0.18252 -0.24361 -0.22134 -0.0047461 -0.40167 -0.34261 0.12707 0.21502 -0.42737 -0.39559 0.67437 -0.1019 -0.24637 0.15834 -0.53314 0.3409 -0.14483 0.12507 0.28326 -0.35478 0.5845 0.043245 -0.23855 -0.62242 -0.18675 0.46221 0.10374 0.45848 0.039804 0.15782 0.066439 -0.17625 0.2065 -0.18266 0.36868 0.084267 0.041785 0.11305 0.019362 0.046625 -0.27455 0.27692 -0.30566 0.086029 0.15924 -0.01296 0.269 -0.0030626 -0.088189 0.1287 0.31791 0.013229 0.33686 0.057855 -0.069028 -0.63773 -0.31725 -0.41076 0.11272 -0.18356 0.56007 -0.040867 0.15221 0.22535 -0.26318 0.16106 -0.35376 0.26233 -0.28112 -0.35382 -0.14627 0.57185 0.50121 -0.075618 -0.36656 -0.18187 0.29846 -0.38576 -0.035827 -0.027767 -0.10044 -0.085767 0.087413 -0.054102 -0.23735 0.2839 -0.17457 0.29517 0.22572 -1.1646 -0.32127 -0.40534 -0.38956 -0.54261 0.40998 0.049119 -0.80262 -0.40378 -0.35561 0.037952 -0.026803 -0.35512 0.048759 0.4406 -0.088018 0.58158 -0.21133 -0.33132 -0.13851 -0.099453 0.071723 -0.019196 0.10763 -0.31665 -0.046354 0.3089 0.58783 0.051749 -0.80242 -0.22884 0.28945 0.2563 -0.40563 0.20971 -0.13723 0.39843 0.045191 -0.2071 0.19358 0.19898 0.044412 -0.13688 -0.011958 -0.28972 -0.00039768 -0.31054 0.28458 -0.47532 0.3215 0.032213 0.12777 -0.35996 -0.41927 -0.60092 -0.28699 -0.023793 -0.044633 -0.18855 -0.0091544 -0.017563 0.70594 -0.067678 0.12341 0.32887 -0.12728 -0.058429 -0.54553 -0.23297 -0.04033 0.38568 0.048966 0.32551 0.11923 -0.15925 0.22618
calm -0.26525 0.7598 0.22858 -0.85215 0.19095 -0.34826 -2.7391 -0.21137 0.36695 -0.82189 0.14336 -0.80335 -0.89311 0.37625 -0.3542 0.14236 -0.03973 -0.13048 -0.89482 -0.10411 0.24283 -0.27534 -0.23776 0.030368 -0.42557 0.34619 0.24219 0.47016 0.098407 0.25766 0.66185 0.020674 -0.18473 0.59126 0.77245 -1.0145 -0.20177 -0.51554 -0.23249 -0.008511 0.21933 -0.25896 -0.3369 -0.013926 -0.40197 -0.24075 -0.012594 -0.47831 -0.56981 -0.24717 -0.045665 -0.18709 -0.2853 0.014486 -0.041574 -0.048527 -0.099225 -0.37599 0.41784 -0.52879 0.36525 -0.60013 0.057823 -0.16279 -0.35731 0.39166 -0.080979 0.24375 0.19413 -0.072624 -0.054954 -0.56055 -0.45518 -0.044919 -0.1145 -0.16078 -0.12068 -0.35733 0.25403 -0.22438 0.16211 0.61948 -0.45101 -0.11093 -0.2219 0.23141 0.0088216 -0.2829 0.10128 0.026064 -0.027746 -0.14587 -0.1408 0.54484 0.6414 0.45991 -1.1521 0.45352 -0.00059195 0.11021 -0.99997 0.29943 -0.23263 0.14923 0.69241 0.0068555 -0.25496 -0.42574 0.27985 -0.33807 0.044591 -0.44501 0.33522 -0.39197 -0.12505 0.35903 -0.44653 -0.40023 0.25977 0.070986 0.073007 0.32565 0.55229 0.0088961 -0.21416 -0.11446 -0.16687 -0.23672 -0.033207 -0.14607 0.099919 0.34884 0.13007 -0.40777 -0.17769 -0.088154 0.36857 0.15208 -0.15141 -0.25056 0.13744 0.37181 -0.10693 0.31734 -0.16098 -0.47293 -0.40141 0.49711 0.72554 0.2209 0.087149 -0.16415 -0.41876 -0.34393 -0.44017 -0.29862 -0.11132 0.065035 -0.48496 0.64526 0.63778 0.5589 -0.47339 0.44123 0.23905 0.42895 0.38292 -0.045618 0.36014 -0.84497 -0.82493 0.083242 0.56052 0.22644 -0.14897 0.26153 -0.23496 -0.35956 0.2358 -0.081504 0.048683 0.079941 0.27602 0.38313 -0.34708 0.014211 0.23462 0.44377 -0.12817 -0.34588 -0.45704 -0.2257 -0.54112 0.61203 -0.12165 -0.64086 0.063524 -0.027407 -0.32517 -0.10285 -0.16179 -0.31441 0.35582 -0.69985 -0.46557 -0.09781 0.054762 0.61852 -0.38849 -0.052497 -0.086863 -0.28525 -0.020722 -0.49442 -0.27901 -0.37896 0.092012 0.34952 -0.22141 -0.76204 -0.3142 0.12498 0.21562 -0.012858 -1.3692 -0.65707 -0.40927 -0.31667 -0.89083 -0.3239 0.031603 0.64274 -0.38966 0.052497 0.087929 -0.14019 0.3771 0.17055 0.66804 0.75041 -0.37729 -0.158 -0.66916 0.2517 0.056171 0.013487 0.14612 0.23437 0.11975 -0.23308 0.15254 -0.24809 -0.22449 -0.35157 0.45313 0.035017 0.11755 0.40389 0.13686 -0.25534 -0.23459 -0.13403 0.029249 -0.27864 0.14395 0.82063 0.15592 -0.178 -0.12578 -0.060798 -0.36241 -0.14948 -1.0739 -0.57702 -0.31085 -0.17198 -0.065117 0.29129 -0.66398 -0.21617 0.54531 -0.25262 -0.10148 -0.50723 0.1465 0.35809 -0.6042 0.065824 -0.24932 -0.038508 0.29703 -0.21533 0.13605 -0.19498 -0.37796 0.020202 -0.18262 -0.12042 -0.20889 -0.25039
disappointed -0.31853 -0.40476 -0.051019 -0.27221 0.011441 0.12313 -2.6524 -0.36442 0.28516 -0.39609 0.092909 -0.46092 -0.14092 0.16641 -0.10127 0.30498 -0.27696 -0.24476 -0.022337 -0.37418 0.083765 0.14938 -0.072761 0.085166 -0.40846 -0.12201 -0.21385 0.00077619 0.6318 0.29819 -0.38087 0.50226 0.080495 0.65943 0.29197 -0.097966 -0.37138 -0.3573 -0.38206 0.10005 0.014479 -0.19758 -0.08553 0.28563 -0.012085 0.019292 0.044791 0.052268 0.39018 -0.25263 0.063202 0.001282 0.537 -0.15385 -0.07205 0.094623 0.38534 -0.28504 0.79279 0.080362 -0.040772 -0.052203 0.39305 -0.1031 0.44362 0.14656 0.22918 0.3268 -0.49129 -0.77841 -0.23957 -0.10276 -0.14028 -0.091321 0.89209 -0.037061 -0.45351 0.41899 0.010032 0.38474 0.18869 -0.69154 0.060033 0.021527 -0.26641 -0.097726 0.13273 0.16055 0.2337 -0.19843 0.039681 0.44125 0.0017699 0.23413 -0.2609 -0.28169 -0.35474 0.039443 -0.097609 0.12454 -0.31722 0.26534 -0.45076 -0.24571 0.23092 -0.11491 -0.78421 -0.47403 0.23823 -0.1063 -0.20682 0.2072 0.095872 -0.023885 -0.45744 0.4965 -0.36756 -0.3482 0.060091 -0.022305 0.12628 -0.049908 -0.086678 0.083168 -0.27719 -0.0047402 0.15114 -0.33748 0.19323 1.6107e-05 0.074488 -0.10239 0.23018 -0.27244 0.54933 0.42218 -0.01033 -0.078677 0.24679 -0.055525 0.027958 0.1411 0.14305 0.010753 0.15204 -0.45404 -0.45888 -0.06248 -0.33555 -0.045192 -0.097231 0.67882 -0.64084 -0.079417 -0.38686 0.43891 0.061573 -0.467 -0.2403 0.035724 0.1862 -0.084165 -0.15223 -0.094045 -0.27055 0.12417 0.18803 -0.0027851 0.034444 -0.016677 0.14675 0.088049 -0.32772 -0.63168 -0.48958 -0.15774 -0.063596 0.0033323 -0.25546 -0.092234 0.7169 0.55177 0.29191 -0.065313 -0.47251 -0.36714 -0.3609 -0.25684 0.06012 0.40296 0.18734 0.063003 -0.095794 -0.14197 0.043748 0.14153 -0.033742 -0.5277 0.061648 -0.3814 0.14835 0.31148 -0.036944 0.076283 -0.29098 0.0037274 0.15411 0.2762 0.23666 0.50855 0.58028 0.53688 0.023656 0.11984 0.30978 -0.2031 -0.20688 0.43397 0.35914 -0.16048 0.19153 -0.11688 0.11499 0.099075 -1.5545 0.15884 0.38238 0.40091 -0.093669 -0.34589 -0.17614 -0.0685 0.027679 0.061022 0.23681 -0.29059 -0.16701 0.40671 -0.15997 0.011408 -0.2864 0.19481 -0.55842 0.75862 -0.13407 -0.32328 -0.84364 0.45913 0.28334 0.1011 0.023945 0.23643 -0.10156 -0.60044 -0.080094 -0.019405 0.12403 0.059056 -0.4782 0.11878 -0.45483 0.50586 0.28502 -0.43609 -0.15913 0.43034 -0.020183 0.045673 0.0038488 0.10473 0.15214 0.12315 -0.19474 -0.13097 -0.026268 -0.056176 -0.085028 -0.03304 0.22694 0.1601 0.11776 -0.53956 0.51519 -0.0068707 0.19875 -0.21381 -0.19258 0.75566 -0.10153 -0.39574 -0.20935 -0.18054 0.037207 -0.01969 0.3612 0.76473 0.12313 0.28115 0.45361 -0.52327
nervous -0.11698 -0.30254 -0.34432 -0.20711 -0.58378 -0.57414 -2.9683 0.11075 -0.3794 -0.4745 0.049258 -0.21653 -0.1737 0.47278 -0.50193 0.21398 -0.38863 0.34742 -0.7955 0.11016 -0.6834 -0.44185 -0.21153 0.18391 -0.07976 0.22905 -0.11874 0.11687 0.087663 0.25484 -0.18481 -0.33393 0.25942 0.8845 -0.099257 -0.49857 -0.40162 -0.80097 0.20614 0.16025 -0.1883 -0.29051 -0.024959 -0.013205 -0.36081 -0.255 0.34581 -0.086611 0.19496 -0.012956 -0.031373 -0.4034 0.18567 0.30046 -0.32774 -0.49905 0.33113 0.29953 0.77972 0.10445 -0.49152 0.31812 -0.11668 -0.13172 -0.249 0.74578 -0.40864 0.13245 -0.41571 -0.36936 -0.090873 -0.24028 0.20332 0.21652 0.33136 -0.64331 0.074368 -0.46041 0.04108 0.085698 0.2804 -0.72487 -0.15433 0.37758 -0.2036 0.53935 0.60159 -0.25935 -0.11035 -0.13152 -0.36955 -0.12494 -0.14099 -0.22003 -0.027849 0.29852 -1.1239 0.49509 -0.37709 1.0726 -0.2613 0.64494 -0.4598 0.036633 0.55269 -0.6839 -0.3389 -0.38984 0.37655 -0.13904 0.58155 0.033018 -0.11647 0.14252 -0.25475 -0.17824 -0.14046 -0.65185 0.29647 -0.37868 -0.10279 0.4455 0.33105 0.59932 -0.044441 -0.082988 0.062701 0.3097 -0.20632 -0.057334 0.13854 0.46922 0.57784 -0.050724 -0.56186 -0.043402 -0.24566 0.40804 -0.24459 -0.38327 -0.31031 -0.13816 0.55996 0.73997 -0.19187 -0.49523 -0.54244 0.42571 -0.24282 0.31192 -0.00095686 -0.63947 -0.28572 -0.019195 -0.16232 -0.34735 0.16551 0.2808 0.11559 0.14863 0.1359 0.23408 -0.56598 0.19351 -0.4166 -0.29817 -0.095129 -0.65497 0.21986 -0.67086 -0.34672 0.078595 -0.17514 0.059249 -0.22781 0.096963 -0.23805 -0.11981 -0.66843 -0.10185 0.035593 0.10465 0.49369 0.24882 -0.58491 0.083283 0.40838 0.23882 -0.3949 0.060234 0.13606 0.24164 -0.025793 0.6091 -0.19365 -0.1478 0.021647 -0.23583 -0.35531 0.34035 0.024586 -0.23873 0.26276 -0.5932 0.082412 -0.8519 0.35985 0.19764 0.24308 0.12464 -0.03272 0.16861 -0.078697 -0.47883 0.5711 -0.092913 -0.22421 -0.12787 -0.21998 -0.077594 -0.21016 0.50824 -0.11891 0.31447 -0.90475 0.032605 -0.030788 0.27493 -0.28509 -0.85501 -0.48145 -0.019651 0.176 -0.23345 0.09507 0.0096855 -0.14144 -0.058212 -0.18035 0.54227 -0.42528 0.092649 -0.4663 0.16962 -0.39181 -0.052344 -0.20052 0.62487 0.52614 -0.13837 0.055653 0.37486 0.27809 0.058194 0.26884 0.44338 0.33392 0.094111 0.2378 -0.2841 -0.2957 0.34884 0.36157 -0.87783 -0.36598 0.16166 0.39632 -0.54358 -0.017202 0.81412 -0.44598 0.024155 0.18219 -0.51724 0.049143 -0.53448 -0.35687 0.41505 0.20652 -0.27843 0.84447 -0.30886 0.4785 0.010193 -0.20042 0.20075 -0.50048 0.32866 -0.34835 -0.32853 0.12937 -0.25453 -0.14432 -0.11544 -0.30401 -0.54807 0.36887 -0.2117 -0.16646 -0.30354
grateful -0.061796 -0.48846 0.035504 -0.23997 -0.29306 -0.17596 -2.278 -0.62073 -0.13472 -0.55487 -0.19407 -0.027883 -0.27095 0.043884 -0.17865 0.059921 0.11105 -0.012109 0.15718 0.49775 0.78938 -0.13311 0.36493 0.33155 -0.19236 0.29838 -0.61574 0.742 0.56365 0.61273 -0.24665 -0.48284 -0.13237 0.36756 0.29854 -0.42416 -0.69145 -0.25091 -0.028452 -0.2524 -0.32051 0.019645 0.16815 0.17289 -0.30208 -0.33605 0.26166 -0.26637 0.67084 -0.21013 -0.19073 -0.021356 0.14422 -0.18887 0.34648 -0.12051 0.40152 -0.45127 0.59447 0.19832 -0.30597 0.67478 -0.21181 -0.66997 0.21443 0.20329 -0.16617 0.19004 0.095525 -0.16578 0.061998 -0.51633 0.031697 0.13612 0.15191 -0.46096 -0.22176 -0.0013531 0.57343 -0.36883 0.15612 -0.3352 -0.44809 0.057333 -0.40484 -0.0076906 0.12116 0.11983 -0.3774 0.37663 0.12289 0.58983 0.23693 0.0095041 -0.21128 0.060281 -0.89183 0.062945 0.021786 -0.024122 -0.38754 0.53637 -0.43259 -0.13652 -0.026107 0.06049 -0.3243 -0.4814 -0.15949 -0.30942 -0.039806 0.15016 0.090595 0.29841 -0.25276 0.77351 -1.3057 0.45108 0.023767 0.15385 0.036516 0.052002 -0.29901 0.30028 -0.15146 -0.29017 0.34457 -0.26337 0.075313 0.063127 -0.31375 -0.037204 -0.29812 -0.10338 0.22319 -0.1514 0.14972 0.12073 -0.093236 -0.061784 -0.054571 0.28407 0.08875 -0.58866 -0.26376 -0.29191 -0.42645 0.032247 0.79216 -0.412 0.0063526 -0.033068 0.025791 -0.16527 0.16783 0.26049 0.07161 -0.036072 0.40338 0.32867 0.11867 -0.25048 -0.24572 0.011209 0.040867 0.30007 -0.32748 -0.015895 0.3563 -0.47699 0.038147 0.055407 -0.011575 -0.18449 -0.58666 0.30456 0.2262 0.083235 -0.33061 -0.36861 -0.035505 0.64129 0.067979 0.015999 0.1231 -0.32402 -0.23474 0.50606 0.046906 -0.2213 -0.075939 0.31217 0.19048 0.11827 0.57232 -0.0087415 0.27231 -1.1837 0.36572 -0.47712 0.12345 0.67995 0.10886 -0.036194 -0.015426 -0.072255 -0.027585 0.056036 0.19518 -0.02029 0.029237 0.29883 0.17566 0.075825 -0.28212 0.006173 -0.0028487 0.47775 -0.53694 -0.0059505 0.20757 0.31114 -0.14413 0.29439 -1.4352 0.017249 0.0040657 0.38937 -0.36572 -0.29041 0.22246 -0.31867 -0.047715 0.21395 -0.0030894 0.40934 -0.39792 0.5375 0.095095 0.44522 -0.074507 0.24585 -0.91779 0.65554 -0.19623 0.15163 -1.0036 0.16878 0.25141 -0.16388 0.045408 0.27473 -0.3996 -0.52813 0.28255 0.11482 0.49329 0.052573 0.048039 -0.60112 -0.19492 -0.32153 -0.2901 0.096981 0.057604 0.28894 0.13531 -0.22245 -0.27261 0.086659 -0.19818 0.43746 -0.32702 0.036508 -0.1905 0.10046 0.0046486 -0.38626 0.13664 -0.34144 -0.057467 0.24117 0.13481 0.57557 0.42525 0.54848 -0.13669 0.47504 0.15172 -0.11218 -0.40719 -0.2355 -0.032877 -0.33313 0.51581 0.13432 -0.056026 0.053352 0.51458 -0.29201
peaceful -0.00162 0.75208 -0.17277 0.039092 0.052661 -0.090185 -2.4357 -0.38426 0.52868 -0.19156 -0.085981 -0.31576 -1.0414 0.27647 0.058524 0.61434 0.12439 -0.064008 0.069455 -0.42613 -0.16646 -0.25864 0.191 -0.052078 0.079959 1.0012 0.031988 0.20245 0.39561 0.54548 -0.1664 0.075311 0.11232 0.46391 0.52157 -0.60583 0.33148 -0.0060505 -0.33644 -0.19063 0.032122 -0.48435 0.28125 0.089971 -0.53488 -0.38561 0.012084 -0.81251 -0.67408 -0.26308 0.78249 0.25082 0.0053081 -0.11304 -0.078493 -0.076826 -0.52075 -0.58599 0.30965 -0.58878 0.29144 -0.12027 0.23341 -0.23689 -0.69026 -0.69697 0.52056 0.38739 -0.05153 0.27694 0.032003 -0.64002 -0.42097 -0.37371 -0.2829 -0.096504 0.060779 -0.11743 0.42456 0.1062 -0.034035 0.11805 0.051979 -0.39691 -0.22992 0.51301 0.62509 -0.73357 0.11939 0.40044 -0.25642 -0.095091 -0.45898 0.24351 0.10651 0.11758 -1.6521 -0.070529 0.4372 -0.36967 -0.39135 0.35456 -0.17705 -0.2668 0.71888 -0.42619 -0.56833 -0.883 -0.013992 -0.19798 -0.54842 -0.12907 0.8726 -0.43518 -0.12274 -0.018692 -0.47564 0.086846 0.01751 0.050879 0.26501 -0.2308 0.60789 0.0066097 -0.37326 0.1626 -0.26323 -0.35607 -0.14907 -0.5841 -0.099021 0.0062095 0.2012 -0.21544 0.31125 0.0067989 0.44316 0.037134 0.26997 -0.82448 0.17302 0.43254 -0.45388 -0.057704 0.38535 0.11558 -0.28123 0.025563 1.7253 0.36431 0.088737 0.137 0.18163 0.16299 -0.41031 0.031606 -0.052562 -0.0033186 -0.84727 0.64741 0.73486 -0.046133 0.071059 0.38216 -0.10459 1.1846 0.14694 -0.12922 0.45405 -0.36204 0.38203 0.63456 0.3381 -0.07722 0.25632 0.67267 0.19842 -0.48298 0.14625 -0.65152 0.22181 0.3499 -0.47152 0.36553 0.36283 -0.084154 0.10832 0.075436 0.010158 -0.063688 -0.031091 -0.26905 -0.43169 0.63915 -0.36467 -0.46769 0.12102 0.0046792 -0.82537 0.20935 -0.33151 -0.10816 0.88718 -0.35903 -0.26451 -0.0084524 -0.039674 0.42002 -0.11028 0.061828 -0.16937 -0.69126 -0.050145 -0.18883 -0.38021 0.091828 -0.5956 0.46744 -0.19551 -0.48328 -0.5564 0.41574 0.28716 -0.45765 -1.3339 -0.53477 -0.38564 -0.36935 -0.24406 -0.60439 0.71218 0.85668 -0.78703 0.49615 -0.37311 -0.49884 -0.20277 0.25595 0.27532 0.93909 -0.17471 -0.52019 -0.23835 0.069181 0.24319 0.037345 0.11914 0.24742 0.3279 -0.29246 0.082374 -0.76105 -0.37653 -0.20721 -0.17916 0.31759 -0.37119 0.59715 -0.19185 -0.2164 -0.33542 -0.2432 -0.039289 0.8578 0.064605 0.54082 0.16673 -0.27981 0.53615 0.034679 0.28282 -0.20584 -0.55962 -0.44949 -0.68817 -0.070376 -0.074448 -0.072634 -0.67538 0.34263 0.63766 -0.321 -0.83637 -0.37424 0.43766 0.25158 -0.089487 -0.22734 0.42288 0.22613 -0.15046 0.43405 -0.43907 -0.40472 -0.26731 0.21428 -0.38384 0.19634 -0.093744 0.027058
bored -0.55887 -0.049763 -0.49823 -0.23085 -0.18887 -0.036305 -2.4158 -0.26337 0.98328 -0.29839 0.7748 -0.17674 0.013357 -0.39684 -0.053683 0.42413 -0.59678 0.030926 -0.20061 0.27046 -0.58822 -0.12532 0.036162 0.054578 -0.51565 -0.076365 0.18098 0.06545 0.1974 0.18152 -0.11768 0.35349 0.26 0.55255 -0.17134 -0.25758 -0.33489 -0.048654 -0.19114 0.15841 -0.10856 -0.37974 -0.49579 -0.22269 0.29192 -0.054277 0.32833 -0.039507 -0.24331 -0.61859 -0.0095596 0.21366 -0.11085 0.010176 0.12417 0.52465 -0.04231 0.12498 0.46987 0.15022 0.033688 -0.16523 0.54576 -0.18149 0.070546 -0.35688 -0.34218 -0.091138 -0.12 -0.37295 0.32894 0.015724 -0.53623 0.19537 0.21411 -0.52613 0.38264 -0.37743 -0.15326 0.0082162 0.13031 0.14307 0.42532 -0.13274 0.20543 0.21164 0.46519 0.092624 0.22537 0.43024 0.095623 -0.062379 0.16112 0.35384 0.092171 0.008421 -0.23133 0.31517 -0.10998 0.91368 -0.20978 0.3621 -0.95182 -0.099811 0.024919 0.00028321 -0.17286 -0.65712 -0.34067 0.13277 -0.24555 0.21035 0.032245 0.32698 -0.28929 0.83247 -0.073594 -0.14159 0.019311 -0.13462 0.30894 -0.039514 0.42633 0.56266 0.68661 0.21253 -0.061032 0.18874 0.31552 -0.33282 -0.61932 0.29516 0.27791 -0.3762 -0.54522 -0.0092162 0.40406 0.29884 -0.057605 0.52262 0.15873 -0.018575 0.21429 0.69643 0.14305 -0.41199 -0.41719 0.31239 -0.42049 0.10563 0.022625 0.25436 -0.30815 -0.47701 -0.37227 0.18104 -0.11866 -0.32817 0.24176 0.035045 -0.36725 0.25095 -0.045727 -0.37862 -0.18352 0.096244 0.093338 -0.12139 0.12587 -0.10065 -0.30265 0.10052 -0.28129 -0.6323 -0.4314 -0.50871 -0.26254 0.056357 -0.14206 -0.21157 0.47258 0.83216 0.42858 0.36829 -0.5114 -0.38686 -0.14093 -0.045776 0.51197 0.36137 0.046282 0.059559 -0.33973 -0.29085 0.023045 -0.1989 0.22045 -0.47328 -0.25272 -0.29002 0.4764 0.25348 0.36722 0.37765 -0.16078 -0.11149 0.32993 -0.64511 0.19694 0.42916 0.1291 0.0020662 0.4632 -0.20203 0.10542 -0.076566 -0.32908 0.47934 -0.30712 -0.15795 0.047496 -0.24304 -0.5074 0.14555 -1.5251 -0.39934 -0.15654 -0.048425 0.0078363 -0.37387 -0.048569 0.68045 0.53724 0.071085 0.14013 -0.01195 0.19818 -0.0582 0.40021 0.15055 -0.26895 0.26591 -0.51733 0.40088 -0.14549 -0.10756 -0.52382 0.19 0.42634 0.35054 0.46393 0.31606 -0.142 0.066481 0.49273 -0.64495 0.14493 0.669 0.096928 0.21952 -0.36684 0.040479 0.054581 -0.032307 -0.45322 0.22789 -0.10266 0.37691 0.34434 0.42579 -0.063212 -0.3303 -0.46439 0.078858 0.049026 -0.17714 0.033816 -0.024433 0.18194 -0.064282 0.82108 -0.25197 0.29765 0.036636 -0.020756 -0.096025 0.00021513 0.42414 0.23984 -0.17518 0.31341 -0.20148 0.0013908 -0.4099 0.024802 0.51387 0.52871 0.26266 0.18023 -0.89061
lonely 0.16414 -0.15163 -0.7196 0.94734 -0.4727 0.12867 -1.8539 -0.33831 0.041677 -0.15938 0.92596 -0.18034 -0.35069 0.68711 -0.27134 -0.049695 -0.14568 -0.40937 -0.12843 -0.032982 -0.08645 0.0052869 -0.18909 0.30443 -0.33862 0.16544 -0.25018 0.15962 0.20419 0.49689 0.22559 0.59475 0.34595 0.33435 0.53049 0.11781 0.20417 -0.23639 -0.49039 0.059285 0.3411 -0.47339 -0.16408 -0.13032 -0.60091 0.29128 -0.036536 -0.18486 0.061525 -0.22213 0.29171 -0.33172 0.22512 0.054202 0.13459 0.53561 0.3022 -0.19977 1.0593 -0.25103 -0.046038 -0.32449 0.31586 -0.55384 0.48359 -0.037738 0.10008 0.4959 -0.13911 -0.15546 0.19741 0.15507 -0.13893 -0.19886 -0.035775 -0.52869 -0.10988 -0.44805 0.23821 -0.19387 0.24279 -0.14231 0.0051996 -0.083239 -0.13443 0.4638 0.1083 0.20013 -0.16754 0.52696 0.33276 -0.090877 0.16724 0.099874 0.10869 -0.2208 -0.68903 0.96293 0.099148 -0.005653 0.0059795 0.20153 -0.56098 -0.55828 0.17264 0.13786 0.10201 -0.83375 -0.29118 -0.30678 -0.34402 0.39821 0.47284 -0.21544 0.11322 0.73278 -0.53663 -0.010943 0.14406 -0.16591 -0.22013 -0.20513 0.32201 -0.24433 0.45541 -0.067544 0.15136 -0.35977 0.38995 -0.65235 -0.45535 0.45027 0.15599 -0.022258 0.29372 -0.01323 0.75944 0.24066 -0.77654 0.76924 0.19537 -0.18774 -0.0071931 -0.012657 -0.50025 -0.22006 -0.74338 0.77116 0.13499 0.3973 -0.078154 0.036285 0.032 -0.41161 0.34924 -0.53791 -0.10124 0.038749 0.58757 0.10867 -0.054766 0.17587 -0.31501 -0.13366 -0.15085 1.0168 -0.21404 -0.58955 -0.26227 0.14474 -0.52483 -0.11379 -0.17156 0.0020711 -0.16801 -0.24899 0.047944 -0.17889 0.3616 0.20323 0.46562 0.29668 0.20445 -0.094542 -0.13448 -0.37358 0.052622 0.26167 0.54141 0.21393 -0.11073 -0.15971 -0.35363 0.35117 0.2689 -0.66678 0.7239 -0.46452 -0.55669 -0.24314 -0.20578 0.075038 -0.054493 0.075947 0.22581 -0.50424 0.44534 -0.048344 0.42809 0.73806 0.029265 -0.3903 0.28503 0.16792 -0.37622 0.077312 0.02363 0.18518 0.045246 0.29707 -0.036785 0.56052 -0.019191 0.035907 -1.841 -0.13974 -0.19943 -0.24692 -0.19806 -0.55848 0.055207 0.80028 -0.20071 0.22455 0.39144 -0.1458 -0.1722 -0.51764 -0.78079 0.019679 -0.043656 -0.42964 -0.48487 0.64842 0.011448 -0.3625 -0.6122 0.45696 -0.063067 0.27917 0.56448 0.25928 -0.38959 0.084069 0.59836 -0.45131 -0.0031941 0.29005 0.11511 0.33323 -0.18564 -0.090561 0.23422 0.4087 -0.15043 0.69072 -0.10661 -0.27783 -0.22007 0.34197 -0.26156 -0.22829 -0.34732 -0.11597 -0.23186 -0.03206 0.028879 -0.30839 0.031981 0.19456 0.64071 -0.24157 0.30252 0.31659 0.42132 -0.56867 0.30712 0.22683 0.18629 -0.6047 0.077682 -0.020696 0.28496 -0.5221 0.16334 0.43175 0.42028 0.21484 -0.15597 -0.18108
high-speed -0.54363 -0.49111 -0.22112 -0.15958 -0.24527 0.48787 -1.8912 0.4309 -0.17404 0.39328 -0.079751 -0.45129 0.52164 0.7727 0.075446 -0.21736 -0.36248 -0.40456 -0.060379 0.11067 -0.70127 -0.30647 0.10973 -0.29959 0.20896 -0.27886 -0.089763 -0.38463 -0.058478 0.11861 -0.025722 0.34642 0.19339 -0.73969 -0.056424 -0.34068 0.54246 0.18344 -0.42615 -0.14162 0.19097 -0.32261 -0.18641 -0.47619 -0.23896 0.043946 -0.3544 -0.2411 0.56046 0.22139 -0.24138 0.18064 0.20335 -0.33342 -0.056002 0.2934 -0.23189 0.036621 -0.2582 -0.19253 0.38847 0.92468 -0.56818 0.78826 0.31358 -0.2067 0.37289 -0.48616 0.54156 0.036669 0.97717 0.88182 -0.57685 0.60431 -0.62611 -0.37106 0.70387 0.33468 0.019768 0.44591 0.18021 0.59683 0.093817 0.22409 0.42579 0.72234 0.49353 -0.23061 -0.3015 0.098547 0.91267 -0.1429 -0.72615 0.20216 -0.50485 -0.31518 -1.6078 0.49075 0.0038623 0.50262 -0.10036 -0.092005 0.75539 0.57241 -0.08654 0.27641 -0.60893 -0.15882 0.17256 -0.28749 0.34526 0.26575 -0.086885 -0.21056 0.37986 -0.82833 0.58786 -0.23412 0.068475 -0.25336 0.2197 0.37575 -0.14538 0.29453 0.41484 0.15592 0.133 -0.084494 0.51227 -0.37853 0.55808 -0.16865 0.063739 -0.10411 -0.72821 1.0327 -0.16253 -0.024756 0.37616 -0.093305 -0.028925 0.079803 0.17644 -0.2045 0.079109 0.65779 -0.14647 0.49246 -0.36914 -0.0021127 -0.036427 0.16212 0.1437 -0.46977 -0.14928 -0.43435 0.19337 0.072104 -0.35438 -0.15024 0.17078 0.43197 0.80726 -0.019719 -0.064088 0.3536 -0.49057 -0.41601 0.33264 -0.1274 0.21778 0.29791 -0.081851 -0.50335 0.55198 -0.092956 0.02236 -0.32634 0.13247 -0.23761 0.42012 0.69098 -0.36648 0.54566 0.28618 -0.33511 -0.14906 -0.077333 0.15907 0.61586 -0.47272 -0.52569 0.029517 0.48258 0.49694 -0.0097614 -0.0020293 0.29231 0.22267 0.46539 -0.20471 -0.83907 0.12352 0.16109 -0.015589 0.12011 0.49231 0.022964 -0.062035 -0.31314 -0.26664 0.36206 0.014022 -0.13637 -0.031431 0.37006 -0.11197 0.20546 -0.14936 -0.6075 -0.29575 -0.4087 0.13224 0.62953 -1.5877 0.94601 -0.10502 0.1865 -0.16313 0.74339 0.07449 -0.62716 0.19438 -0.19305 -0.13067 -0.011212 0.53949 0.26092 0.39055 0.042425 0.026275 -0.63807 0.088519 -0.22051 0.30464 -0.14237 0.047457 -0.23239 -0.31878 0.21094 0.078474 -0.63703 -0.12565 -0.57621 -0.78755 0.04229 -0.39896 -0.3948 0.33947 -0.87572 0.33284 0.56023 0.023153 0.24715 0.2324 0.10575 0.79741 -0.14854 0.17685 -0.071504 0.08208 -0.17023 -0.013553 -0.35861 0.0045271 -0.24992 0.0070734 -0.56781 0.11719 -0.21863 -0.65486 -0.35119 -0.48559 0.12368 0.01417 0.23689 -0.54004 0.57827 0.49982 0.29097 0.59819 0.27972 -0.6748 -0.17734 0.47894 -0.039719 0.12203 -0.2298 -0.54656 -0.68574
distinctive 0.54584 0.18397 0.18695 0.0024774 -0.15343 -0.11437 -2.1158 -0.55461 0.10002 -0.12531 0.28365 -0.30439 -0.091175 0.36615 0.17002 -0.29586 -0.086584 0.025778 -0.55504 0.0049517 -0.27915 0.33488 -0.48447 0.35163 0.23035 0.14293 0.11401 0.057698 -0.11178 -0.77462 0.10885 0.13609 -0.147 0.20279 -0.13423 -0.20261 0.095918 0.32197 0.26384 -0.13387 -0.33517 -0.24344 -0.08657 -0.04407 0.040945 0.17567 -0.36902 -0.26113 -0.15492 0.18969 -0.041844 0.0063461 -0.0035897 -0.1527 -0.054106 -0.3304 0.30647 -0.48179 0.48325 0.38594 -0.16262 -0.21401 -0.11195 0.50801 -0.68321 -0.37966 -0.2859 0.37702 -0.29924 0.8093 -0.56377 0.26859 0.13228 -0.17714 -0.13116 -0.65421 -0.26319 -0.15474 -0.1028 0.67684 -0.35163 0.11257 -0.18839 0.269 0.21998 -0.5738 -0.6432 0.22753 -0.0073081 -0.18966 -0.22553 0.13685 0.075656 -0.11267 -0.33843 -0.13196 -2.402 0.11827 0.25931 0.0001864 0.54201 0.15307 0.20087 0.36859 0.22234 0.91142 -0.26022 -0.076197 0.013336 -0.065699 0.40383 0.062214 0.19032 -0.11224 -0.27038 -0.075999 0.24317 0.072429 0.50852 -0.15514 0.24482 -0.26216 0.021009 -0.075389 -0.48434 -0.083107 -0.17501 0.097672 -0.057629 0.075918 -0.056703 0.018252 -0.48935 0.75713 -0.055023 0.35338 0.072111 -0.069005 0.30775 -0.4371 0.078479 0.57682 0.48219 -0.10762 0.0070557 0.34651 -0.055709 0.1679 0.23313 -0.32422 0.60171 -0.35304 0.0458 0.27676 0.38359 0.66244 0.46677 -0.11346 -0.71523 -0.12948 0.063964 0.019439 0.21534 -0.065996 -0.13739 0.16461 -0.47636 -0.26231 -0.21417 0.87093 -0.053096 0.2057 0.1694 -0.13921 -0.099384 0.02446 0.087689 -0.19657 -0.088585 -0.13544 0.62295 0.10428 -0.094189 -0.25634 0.29557 0.31289 -0.10745 0.20781 -0.065561 -0.3028 -0.43769 -0.3487 -0.55222 0.31333 -0.01775 0.45112 0.13745 0.008316 -0.042753 -0.18344 0.52376 -0.5876 0.2961 0.020287 -0.32927 -0.18113 0.030644 0.40884 0.57865 0.06364 0.19307 -0.11302 0.15591 -0.0011427 -0.41753 -0.024884 0.3555 -0.001705 -0.072954 0.045076 0.24922 -0.2925 0.42625 0.29909 -0.75919 -0.53431 -0.2306 -0.63676 0.0048386 0.11109 0.16375 -0.35956 -0.11914 -0.50853 0.095585 -0.23843 -0.22876 0.12068 0.12435 -0.23595 0.11468 0.17113 0.42288 -0.15998 0.13013 -0.020278 -0.084113 -0.2556 0.035851 -0.04562 0.20738 -0.040066 0.14139 -0.57466 0.0051315 0.1905 -0.04035 -0.17835 0.24466 -0.45964 0.074483 -0.26137 0.19868 0.28259 0.029896 0.62454 -0.65811 -0.16118 0.030971 -0.010088 0.19733 0.11514 -0.25814 0.39397 0.31373 0.11134 -0.056702 -0.056837 -0.64764 -0.030686 0.42713 0.51018 -0.071409 -0.019556 -0.017662 0.53761 -0.042517 -0.058187 -0.10082 -0.047628 0.0050854 -0.10897 -0.0020213 0.040351 0.010466 0.044098 0.05962 0.013782 0.06298 0.1282
frustrated -0.70196 -0.12493 -0.56237 0.012421 -0.31964 -0.074162 -2.8225 -0.21041 0.12539 -0.1528 0.19507 -0.16845 -0.3178 -0.068618 -0.1064 0.47985 -0.2903 -0.15498 -0.38169 -0.37418 -0.16148 0.14385 -0.057009 0.10701 -0.38465 0.096593 -0.040005 -0.042133 0.37274 -0.051193 -0.34494 -0.084517 0.22246 0.64193 0.28024 -0.41739 -0.047121 -0.36814 -0.49688 0.38224 0.18748 -0.29942 0.018243 0.0023331 0.15341 0.10691 0.39671 0.029156 0.33662 -0.23702 0.26611 -0.38592 0.27108 0.052481 0.041248 0.31052 0.121 -0.059541 0.60636 -0.020161 0.045008 -0.099687 -0.061322 -0.36505 0.48605 0.04046 -0.148 0.38865 -0.14485 -0.45078 0.048773 -0.040553 -0.51811 -0.19907 0.40212 -0.081047 0.077069 0.069383 -0.067173 -0.033911 0.38648 -0.76603 0.10245 0.012669 -0.23449 0.30005 0.26918 0.10552 0.10927 0.077732 0.12288 0.13738 0.25302 0.010315 0.22168 -0.3127 -0.66894 -0.032157 0.12653 0.45355 -0.21169 0.35932 -0.64125 -0.087161 0.41027 0.03505 -0.38342 -0.54195 -0.018949 -0.21243 -0.14801 0.404 0.32208 0.22685 -0.153 0.22712 -0.42918 -0.59983 -0.14544 0.079663 -0.023015 -0.24192 -0.15717 0.33914 -0.11827 0.19167 0.39161 -0.31757 0.20716 -0.36781 0.32742 -0.096282 0.39518 -0.039436 -0.27571 0.28958 0.086847 0.57025 0.096248 0.11907 -0.012583 0.020791 -0.077145 0.21772 0.14312 -0.51422 -0.69707 0.043412 -0.37033 -0.14268 -0.0038738 0.46041 -0.41871 -0.28473 -0.57727 0.28004 -0.022187 -0.39984 0.19401 -0.19229 -0.042183 -0.22205 -0.37934 -0.22514 -0.058146 0.28518 0.10766 -0.043817 0.3972 -0.10334 -0.42641 -0.084165 -0.28016 -0.32365 -0.19728 -0.43736 0.033259 0.17054 -0.30362 0.073744 0.85637 0.48177 0.64551 -0.044287 -0.21943 -0.61633 0.071028 0.20323 -0.064341 -0.2186 0.25536 -0.02571 -0.074679 -0.065912 0.23167 -0.43027 0.018767 -0.90563 -0.61256 -0.12859 0.25514 0.14464 0.38005 0.159 -0.12404 -0.024002 0.33019 -0.11993 0.023198 0.454 0.53188 0.24564 0.23969 0.078836 -0.014321 -0.43587 -0.010951 0.3193 0.44331 -0.18506 -0.10933 -0.14621 -0.11284 0.34615 -0.55436 0.11702 0.37053 0.35007 -0.43178 -0.22549 -0.50251 0.30344 0.23646 0.16184 0.18608 -0.26791 0.39587 -0.067044 0.29253 0.051676 -0.29892 0.41661 -0.80483 0.58978 -0.31747 -0.33108 -0.90747 0.24575 0.1157 0.31145 0.087603 0.55483 0.23173 -0.25751 0.40689 -0.18638 -0.27749 0.22095 -0.045247 -0.47547 -0.29998 0.05246 0.055113 -0.095193 -0.5496 0.44548 -0.029438 -0.11603 -0.034095 0.20154 0.19563 -0.29688 -0.48401 0.060432 -0.010533 -0.19329 -0.051219 0.072472 0.86701 -0.038684 0.44922 -0.44913 0.69442 0.035675 0.016962 -0.20909 -0.061118 0.74212 0.049805 -0.11481 0.12542 -0.671 0.0089888 -0.087933 0.086764 0.49825 0.31479 0.19082 0.60443 -1.0046
jealous -0.37181 0.22181 -1.0437 -0.17332 -0.25948 0.21462 -2.2014 -0.47768 -0.070005 -0.66027 0.6011 -0.022336 -0.0059871 -0.39402 -0.25167 -0.096057 -0.69257 -0.67737 -0.67398 -0.3295 0.092047 -0.11649 0.44562 0.51906 0.25538 0.070106 -0.68304 0.64284 0.04582 0.74048 -0.19673 0.16403 -0.21527 0.47934 -0.096948 -0.52803 -0.24862 0.035765 0.17205 -0.43515 0.11451 -0.18983 -0.38555 -0.10644 0.52378 -0.0034685 0.17079 0.035874 0.64382 0.28904 -0.021532 -0.57982 0.097848 0.20754 -0.15446 -0.038821 0.17871 -0.08564 0.75067 0.30294 0.062721 -0.081486 0.53385 0.057048 0.071768 0.04388 -0.23694 0.40496 -0.11044 -0.19171 0.076315 -0.22579 -0.0063039 0.062368 0.46518 -0.47799 0.17657 0.072796 0.31012 -0.0099004 0.41163 -0.51111 0.40856 0.083129 0.29203 -0.0751 -0.087478 -0.06458 0.11747 0.4508 -0.11568 -0.13507 0.27464 0.28805 0.24256 -0.10084 -0.063615 0.45124 -0.28206 0.32797 -0.43226 -0.03089 -0.31225 0.091763 0.47475 -0.29017 -0.44131 -0.6768 0.0079928 0.64194 -0.33409 0.13107 -0.16376 0.13607 -0.27857 0.63901 0.1936 -0.49463 0.35598 0.13375 -0.14105 -0.56155 0.20416 0.10635 -0.31596 -0.27259 -0.054104 -0.17783 -0.12686 -0.33128 -0.51998 -0.14113 0.2821 -0.4886 0.13798 -0.091154 0.47775 0.3596 -0.4454 0.36671 -0.23985 -0.30061 0.2012 0.051338 0.14552 -1.2449 -0.41699 0.67299 -0.33098 0.10107 -0.094621 0.37188 -0.1853 0.23797 -0.026583 -0.27984 -0.046484 -0.071104 0.40658 0.14097 -0.046943 -0.44549 -0.55894 0.26615 -0.15294 0.10643 0.024299 -0.16838 0.40743 -0.25506 0.38446 -0.027826 -0.67503 -0.68495 -0.23828 -0.097491 -0.21846 -0.20429 -0.27194 -0.1232 0.3567 0.59461 0.35856 -0.1809 0.060806 -0.10365 -0.39782 0.1958 0.24073 -0.33866 0.26392 -0.28181 0.11568 0.24706 0.11663 0.17063 -0.28144 -0.32779 -0.056125 -0.092361 -0.54456 0.31521 0.23783 -0.026678 -0.50366 -0.17392 0.2379 -0.37096 0.21972 0.18635 -0.017302 0.43037 0.29908 0.18324 0.0038164 -0.4677 0.28186 0.38403 0.4385 -0.36263 0.43527 -0.23604 -0.17088 0.21869 -0.96729 -0.3795 -0.12317 0.21368 -0.053422 -0.63491 -0.20252 0.76622 -0.094719 -0.16913 -0.27217 -0.1402 -0.16095 -0.46217 0.21976 0.22544 0.029689 0.00015924 -0.27759 0.73933 -0.098756 -0.16842 -0.9331 0.26091 0.47714 0.019932 -0.013981 0.18858 0.24865 0.12505 0.5658 -0.081444 -0.17498 0.63438 -0.14015 -0.20683 -0.12423 -0.37669 0.28151 -0.24693 -0.49777 0.54208 -0.12398 -0.019138 0.060806 0.0072568 -0.18245 -0.68875 -0.19429 0.23313 -0.26583 0.071702 -0.54703 -0.069217 0.36333 -0.049558 0.58994 -0.46422 0.42086 0.076487 0.096502 -0.56718 0.057265 0.29504 -0.088125 -0.080167 -0.10593 -0.1759 -0.39355 0.14455 0.24501 0.59107 -0.26392 -0.35907 0.37334 -0.38583
anxious -0.36245 -0.30691 -0.28948 -0.11567 -0.50716 0.22929 -2.6843 0.0099461 -0.081917 -0.11105 0.2233 -0.083835 -0.36839 0.13405 -0.003237 0.24696 -0.24263 -0.11209 -0.3054 -0.15112 -0.52084 0.023946 -0.17655 0.069793 -0.49208 0.2496 -0.0731 0.31895 0.421 0.22 -0.5552 0.01528 0.12224 0.6062 0.40584 -0.42082 -0.31593 -0.30069 -0.25112 0.30587 -0.18544 -0.29483 0.22395 -0.13766 -0.6803 -0.13801 0.20291 -0.23413 0.010641 -0.2905 0.050763 -0.2655 0.035521 -0.23498 0.15464 -0.099207 0.48622 0.19897 0.54647 0.42172 -0.14591 0.038089 -0.081408 -0.47117 0.1108 0.41669 -0.43394 0.20749 -0.045007 -0.17054 -0.087788 -0.17334 -0.2727 0.18427 0.14656 -0.7251 0.17615 -0.17793 0.086863 0.090946 0.37082 -0.31477 -0.30247 0.029191 -0.0087788 0.54951 0.258 -0.49568 0.30562 0.0015559 0.053205 -0.11029 0.14518 0.23919 0.017383 -0.26513 -0.73502 0.46839 0.21956 0.39565 -0.52971 0.079957 -0.58377 -0.10435 0.45414 -0.049454 -0.58425 -0.6171 0.1667 -0.091331 0.5118 0.097934 0.20929 0.43739 -0.16596 0.18139 -0.80495 -0.24306 0.0068637 0.16305 0.43077 0.24343 0.26648 0.098229 -0.28915 -0.033177 0.13978 -0.010398 -0.12572 -0.041914 0.53796 0.0097205 0.18163 -0.3167 -0.025176 0.032931 0.058843 0.37871 0.1346 0.042442 -0.013669 0.15558 -0.013988 0.52784 -0.016074 -0.53286 -0.69931 0.50746 -0.26754 0.043639 0.073821 0.086018 -0.64751 -0.39188 -0.33731 0.070181 0.14889 -0.10756 0.15441 0.19036 0.14086 -0.082611 -0.63897 0.10487 -0.051099 0.27996 -0.14539 -0.26464 0.32503 -0.15708 -0.62411 0.061361 -0.15456 -0.3484 -0.18845 0.015926 -0.10287 -0.24479 -0.42915 0.0049126 0.6734 0.41581 0.63648 0.090185 -0.78628 0.043932 0.16402 0.013183 -0.25405 -0.1247 -0.0675 0.19228 -0.36859 0.38565 -0.086977 -0.46913 0.18841 -0.495 -0.065117 0.04089 -0.13274 0.14628 0.12839 0.0013655 0.15022 -0.33899 0.35678 -0.0071339 0.024881 -0.046985 0.51923 0.19424 -0.051265 -0.054938 -0.12713 -0.56744 -0.22155 -0.03821 0.019446 0.048806 0.042012 0.48376 -0.29166 0.47242 -0.42783 -0.24279 -0.18965 0.26388 -0.40073 -0.74069 -0.29192 0.50871 0.18687 0.14222 0.12944 -0.29792 0.11636 -0.15164 -0.11106 0.27386 -0.27505 -0.20959 -0.48579 0.54012 -0.1154 -0.20815 -0.56575 0.38127 0.53389 -0.14414 0.26499 0.36667 0.16742 -0.44781 0.30452 -0.18793 0.3157 0.49847 0.019958 0.12414 -0.32238 -0.40426 -0.034165 -0.41075 -0.36855 0.55579 -0.00088588 -0.02988 0.066468 0.57873 -0.2234 -0.33591 -0.19028 -0.39784 -0.027428 0.012451 0.23756 0.11012 0.36237 -0.41711 0.37703 -0.48044 0.56448 -0.24557 -0.36349 0.21448 -0.35028 0.69031 -0.29165 -0.73163 -0.0014461 -0.44193 -0.18946 -0.016405 -0.23459 0.024999 0.18532 0.067686 -0.01365 -0.9199
rugged 0.8843 -0.04057 0.62281 0.056793 0.44066 -0.18354 -1.7623 -0.1207 0.007445 -0.30067 0.41983 -0.93856 0.76297 0.50312 0.29608 -0.70352 0.13954 -0.68835 -0.14173 0.033733 -0.49102 0.26763 0.12212 -0.094307 0.53797 0.013728 0.33482 -0.042319 0.00018631 -0.083877 0.41172 0.51495 0.083146 -0.3338 0.33046 0.0020429 -0.20431 0.51484 -0.1244 -0.00014733 -0.073778 -1.0765 0.22239 0.79281 -0.44561 -0.04402 -0.2388 -0.72835 -0.3815 -0.076928 0.2997 -0.023845 -0.19147 0.33191 0.90982 -0.11868 0.49667 -0.65383 0.63192 -0.48016 0.28717 -0.3975 -0.31515 -0.18848 -0.051936 -1.2834 0.14766 0.44385 0.35486 -0.057917 -0.096124 0.48914 -0.41862 0.43305 0.064814 -0.51149 -0.24271 -0.67925 -0.57397 0.24552 -0.32025 1.1027 0.0056606 -0.16592 0.038635 -0.47006 0.1975 -0.053597 -0.33355 -0.28826 0.11741 0.13122 0.12664 0.46724 0.34675 -0.27019 -1.2418 0.34059 0.24774 -0.27941 -0.17011 -0.48353 0.15895 0.059725 0.19436 0.062878 0.47315 -0.31092 0.10366 -0.16847 -0.20738 0.31558 0.18614 -0.23359 -0.30161 -0.4315 0.72074 0.039952 -0.14963 -0.020774 -0.23622 -0.11291 0.47897 -0.93638 -0.34799 -0.73991 -0.065192 0.39289 -0.01129 -0.782 -0.26742 -0.17379 -0.36356 -0.27711 -0.098058 0.34826 0.0050422 -0.22368 0.17254 -0.22805 -0.39017 0.07702 0.27516 -0.84371 -0.61598 1.0721 -0.68204 0.33183 0.29068 -0.19509 0.73378 0.59403 -0.39767 0.13225 -0.27882 -0.19754 0.13476 0.11837 0.23006 0.51128 -0.36041 0.21459 0.29389 0.024839 0.25502 0.8254 0.11548 -0.49416 0.52964 0.18973 -0.1274 -0.13617 -0.65476 0.37661 0.061512 -0.15192 -0.0086832 0.15138 0.072155 0.422 -0.38978 0.45614 -0.23608 0.054374 0.82463 -0.074988 0.78312 -0.30003 -0.28998 -0.08067 -0.11824 -0.37693 0.13345 0.31021 -0.40413 0.081654 0.9732 0.37053 -0.46113 0.024297 0.52781 -0.75804 0.082196 0.60329 -0.67783 -0.10595 0.74565 -0.14029 0.14885 -0.86208 -0.5737 -0.1261 -0.34519 0.25123 0.073186 -0.23284 -0.42701 0.55227 -0.16758 -0.73217 -0.12753 -0.048708 0.83649 0.73306 -1.2967 -0.18241 -0.053974 -0.63086 -0.23473 0.1823 0.1591 -0.45277 0.13681 -0.99657 1.0363 -0.061214 -0.22259 -0.55011 0.19959 -0.11521 0.023037 -0.55381 -0.31453 -0.053637 -0.0077794 -0.35601 -1.0008 -0.56667 -0.44021 -0.14839 0.32626 -0.27581 0.1139 -0.23034 0.14491 0.22177 -0.40809 -0.36358 -0.1401 0.052377 -0.11846 0.12397 -0.35226 0.2679 -0.14548 -0.37339 -0.36929 -0.10935 -0.11545 0.59598 0.13789 -0.56602 -0.33181 -0.090631 -0.19144 0.52333 0.027634 0.43568 0.043895 0.030326 -0.025836 -0.075337 0.033668 0.081603 0.37392 -0.66832 0.25105 0.21189 -0.44917 0.13741 0.19333 0.053653 -0.51666 -0.6329 0.70382 0.65886 -0.059651 -0.12405 -0.31913 0.63297
optimistic 0.10455 0.16189 0.055126 -0.11942 -0.33016 -0.15728 -2.4187 0.28963 0.0075799 -0.28395 -0.10063 -0.097259 -0.17511 0.18275 0.0092596 0.25127 0.35352 0.17686 -0.73573 0.28319 -0.21254 0.083992 -0.11643 0.23226 -0.28834 0.11283 0.37251 0.30467 1.0292 0.062234 -0.55827 0.5 0.015817 -0.1583 0.39438 -0.35232 -0.2678 0.39994 -0.76755 0.2573 -0.15551 -0.30152 0.9248 -0.095458 -0.87772 -0.21768 0.28929 0.047392 -0.097321 -0.087481 0.68208 0.20155 0.1281 -0.43166 0.36436 -0.31039 0.65764 -0.37916 0.50549 0.15732 -0.1102 0.095284 -0.032534 0.42498 -0.10782 0.35905 -0.47468 0.13246 0.29049 -0.023773 -0.16538 -0.21281 -0.67421 -0.5681 0.13736 -0.71748 -0.04824 0.21185 0.72457 0.021753 0.18615 -0.59274 -0.59332 -0.21346 -0.29747 -0.066815 -0.22553 -0.27494 0.080406 -0.039211 0.41307 0.076361 0.26773 0.11434 -0.24495 0.61128 -1.135 0.38915 0.24367 -0.42412 -0.59412 0.67851 -0.58653 -0.49556 0.45128 -0.18611 0.098232 0.17425 0.38788 0.10097 -0.01497 -0.018441 0.52766 0.24452 -0.11758 0.42148 0.058991 -0.46093 -0.21934 0.44942 0.51201 0.074847 0.227 -0.14507 -0.4825 0.36159 0.10344 -0.31387 -0.26555 0.032517 -0.090807 -0.15343 0.039673 -0.53211 0.027029 -0.019571 -0.11172 0.1476 -0.22259 -0.13561 -0.07288 0.26895 -0.16645 0.23319 0.066318 -0.084605 -0.71367 0.21394 0.18702 0.44416 0.18271 0.20841 -0.42496 0.4704 -0.76261 0.35611 0.29218 0.3056 -0.24812 -0.11583 0.67746 0.079659 -0.31949 0.22279 0.15724 0.11367 0.37187 -0.17391 0.3638 -0.56072 -0.67375 -0.067384 0.40154 -0.01028 -0.38058 0.031637 -0.20526 -0.26929 -0.11581 -0.048476 0.25213 0.10403 0.18448 -0.17906 -0.10933 -0.25208 -0.14304 -0.1168 0.090592 -0.0017821 0.3029 0.56152 -0.020599 0.11345 0.17995 0.3735 -0.22898 -0.6679 -0.17027 0.0088946 0.020254 -0.10181 -0.28346 -0.519 -0.48205 0.096541 0.056892 0.073165 -0.046282 -0.082179 0.11346 -0.031604 -0.22075 0.24433 -0.1212 -0.37641 0.01635 0.55484 -0.35835 -0.27105 -0.1777 0.19845 0.13243 0.22219 -0.4667 0.40616 -0.10245 0.086468 -0.16011 -0.5652 0.25841 0.20473 0.38461 -0.31116 0.2735 -0.21275 0.20647 0.14925 0.23539 -0.17369 -0.23828 -0.039905 -0.78463 0.55135 -0.25419 0.37705 -0.23287 0.62089 -0.1361 -0.030927 0.22506 0.0088145 -0.83389 -0.40644 0.038386 0.26832 -0.07273 -0.0774 -0.028335 0.54307 -0.83855 0.14811 -0.48869 0.17668 -0.56061 -0.013202 -0.36611 0.083823 0.48518 -0.012652 -0.20094 -0.058764 -0.081889 -0.55971 -0.17278 -0.070799 0.3992 -0.51345 -0.15044 0.34403 -0.21624 -0.61885 0.39834 0.17858 0.54837 0.26338 -0.19479 0.25434 -0.4401 -0.63687 -0.36232 0.23029 0.2064 -0.031229 0.34158 0.1869 -0.49988 0.29005 0.84161 -0.14561
overwhelmed -0.13805 -0.32443 0.054296 -0.17735 -0.62891 -0.20181 -2.587 -0.41419 0.34052 0.023073 0.1012 -0.36901 -0.050223 0.22514 -0.089595 0.19443 -0.45828 -0.27233 -0.43829 -0.51202 0.0172 0.16963 0.42199 0.03132 -0.51614 0.1961 -0.12424 -0.13129 -0.10513 -0.10108 -0.71995 -0.37113 0.18538 0.73617 0.32738 0.14045 -0.23706 -0.64034 0.20298 -0.22027 0.1654 -0.43883 0.10906 0.069675 0.26954 -0.10636 -0.11733 -0.20386 -0.089978 -0.39286 0.58079 0.015558 -0.015995 0.093135 -0.26959 -0.24347 0.14601 0.27472 0.53034 -0.017169 0.16462 0.24362 0.052412 -0.27929 0.069254 0.017945 -0.087744 0.0078658 -0.27265 -0.26176 0.19546 -0.35377 0.028256 0.5437 0.28497 -0.35378 -0.19544 -0.066849 0.27564 -0.018377 0.38745 -0.45518 -0.089026 0.14551 -0.33776 0.41878 0.38648 -0.0068102 0.32255 0.075409 -0.022859 -0.23175 0.42964 0.23064 0.10644 -0.14354 -0.57765 0.12277 -0.25093 0.11173 -0.16694 0.33265 -0.29413 0.43985 0.24734 -0.033577 -0.45121 -0.70265 0.11986 -0.31635 0.15919 0.4428 -0.25747 0.46997 0.22839 0.25838 -0.97805 -0.30209 0.18057 -0.12564 0.039191 0.0087813 -0.048224 0.26686 -0.30541 0.4879 0.0053849 -0.23983 0.10551 -0.023624 0.075214 0.096877 -0.024774 0.052931 0.33071 0.17976 -0.093391 0.35845 0.2719 -0.024199 0.052996 0.15821 -0.14436 0.14194 0.095553 0.1101 -0.34234 0.18307 -0.019036 -0.015351 0.2575 0.80332 -0.034284 -0.31424 -0.41106 0.090486 0.13446 -0.23909 0.1401 -0.055709 0.10203 -0.059135 -0.22188 -0.31024 0.24092 0.15816 0.053721 -0.4355 0.57422 0.081162 -0.28691 -0.34851 -0.18392 -0.19624 -0.0038483 -0.23422 0.093196 0.15928 -0.34298 -0.3647 0.19346 0.66078 0.43844 0.015393 -0.22922 -0.28866 0.20358 -0.17225 -0.084732 -0.2455 0.1046 0.14701 -0.16455 -0.57804 0.56967 -0.37957 -0.14703 -0.72492 -0.39615 -0.20417 0.032902 0.20765 0.070445 0.15777 -0.2278 -0.017305 0.30378 0.17988 -0.1282 0.33351 0.11953 0.24888 0.1387 0.23693 -0.21789 -0.57174 -0.29303 -0.038667 0.2828 -0.33429 0.29562 0.49761 0.076556 0.33976 -0.50198 -0.3054 0.54363 0.65332 -0.34741 -0.13241 -0.27427 0.1918 -0.061059 -0.13245 -0.066988 0.094518 0.17164 -0.13835 -0.37405 0.058743 -0.11768 0.44889 -0.97183 -0.092996 -0.080084 0.221 -0.71165 0.13151 -0.067808 -0.043878 0.14781 0.38153 0.13258 -0.46405 0.64939 -0.68758 -0.21063 -0.023547 -0.59605 -0.16914 -0.22891 0.37712 0.045052 -0.51726 -0.5554 0.26781 -0.12609 -0.18608 -0.22869 -0.13315 -0.42137 -0.39028 -0.93828 -0.1355 0.17403 -0.30012 0.20725 0.46927 0.65848 -0.25287 0.35587 -0.077333 0.55038 0.29069 -0.39193 0.4273 -0.5075 0.50446 0.21833 -0.5136 0.18524 -0.56506 -0.13499 -0.5758 -0.031247 0.56094 0.0414 0.065392 -0.1949 -0.89538
hopeful -0.2953 -0.12345 0.0006416 0.048131 -0.49218 0.051736 -2.0768 -0.098505 -0.12496 -0.092697 -0.43619 -0.095116 -0.16028 0.30526 -0.09085 0.06523 0.38509 0.21398 -0.28039 0.36432 -0.25636 0.31682 0.037934 -0.066621 0.16762 0.19833 0.016813 0.35364 0.93183 0.32523 -0.62991 0.45049 0.055617 0.13816 0.40161 -0.63295 0.0058845 0.11005 -0.89264 0.2941 0.12093 -0.06129 0.95536 0.1211 -0.80533 -0.093651 0.11899 -0.21855 0.17825 0.2175 0.408 -0.29982 -0.017763 0.043526 0.34052 -0.19977 0.24207 -0.28426 0.82681 0.39211 0.022089 0.35138 0.095123 0.22336 0.26511 0.40999 -0.34461 -0.2689 0.36526 -0.21548 -0.17437 -0.26046 -0.66077 -0.49002 0.50974 -0.76143 0.17358 0.27978 0.10927 -0.35096 -0.083132 -0.78179 -0.30689 -0.07745 -0.31325 -0.029374 -0.065607 -0.17337 0.090637 0.085763 0.052504 0.09818 -0.059841 -0.11415 -0.2117 0.25285 -0.92672 0.11034 0.069804 -0.38639 -0.33973 0.69647 -0.26341 -0.44059 0.40773 -0.036574 -0.26361 -0.15256 0.27371 -0.14877 -0.17831 -0.027165 0.57377 0.38752 -0.073256 0.40993 -0.60029 -0.011237 -0.43472 0.15662 0.0021228 -0.24146 0.21253 0.025423 -0.44697 -0.089042 0.38335 -0.62233 -0.23717 -0.15737 0.014365 0.20373 0.027761 -0.17087 -0.078697 -0.13204 -0.21304 0.21881 0.2572 -0.071308 0.054814 0.29149 -0.42932 0.31499 -0.28993 -0.36181 -0.70825 0.045116 0.29056 0.46786 -0.064236 0.4684 -0.22019 -0.27852 -0.57955 0.31044 0.54157 0.26403 -0.51731 -0.078028 0.37795 -0.11259 -0.3372 -0.036451 -0.018673 0.1503 0.15963 -0.44282 0.23767 -0.53933 -0.042094 0.02348 0.084594 -0.15017 -0.42113 0.60226 -0.26888 0.16574 -0.21193 0.13885 0.24843 0.15611 0.38994 -0.11348 -0.35435 -0.078901 0.14475 -0.093818 0.083925 0.19201 0.17777 0.6791 -0.024941 0.47608 0.28111 -0.030341 -0.28785 -0.51754 -0.0032556 0.06052 0.11869 -0.095844 -0.39746 0.22773 -0.1828 0.13274 0.040386 0.29548 0.093318 0.086125 0.31209 0.225 -0.19054 0.2639 -0.12824 -0.26814 -0.2214 0.14802 0.21939 -0.099493 -0.16707 0.29684 0.12537 -0.019736 -0.77715 0.013356 -0.020747 0.34136 -0.44466 -0.54613 0.20344 0.19923 0.35602 0.30449 0.31819 -0.14621 -0.13665 0.15516 -0.19552 0.19691 0.3644 -0.3037 -0.61456 0.99394 -0.26926 -0.0014655 -0.01336 0.69619 -0.37188 -0.19225 0.54932 0.34887 -0.55889 -0.34632 0.047387 0.27854 0.2733 -0.072414 0.12148 0.77568 -0.59811 0.11912 -0.34292 0.21022 -0.48449 0.19826 -0.1703 0.53065 0.2885 0.17787 -0.1918 -0.16983 -0.16382 -0.19888 0.095851 0.030151 0.21317 -0.43197 -0.039712 -0.16204 -0.38562 -0.25394 0.24755 -0.0045112 0.38741 0.43915 -0.27277 0.64775 -0.017369 -0.29317 -0.48143 0.44203 -0.12158 0.20711 0.29693 0.28918 -0.34401 -0.048495 0.16382 -0.41529
miserable -0.3373 0.069934 -0.45936 0.3401 -0.82837 0.26815 -2.4953 0.025389 0.20301 -0.14621 0.43336 -0.24932 -0.25786 -0.22265 -0.44481 0.43788 -0.17161 -0.3253 -0.35523 -0.22346 -0.22623 -0.24855 -0.16747 0.47227 -0.58235 0.020803 0.19705 0.17502 0.73335 0.0039408 -0.2182 0.37146 -0.017133 0.021266 -0.0342 -0.076562 -0.64631 -0.21709 -0.38538 -0.18885 0.35431 -0.35664 -0.39999 -0.14419 -0.17581 0.29663 -0.021634 0.0097164 -0.28832 0.24476 0.38552 -0.03759 0.010315 0.42905 -0.075315 -0.11372 -0.056372 0.015477 0.46281 0.13016 -0.199 0.089631 0.43424 -0.31441 -0.13936 0.017776 -0.077103 0.44025 -0.026982 0.21628 -0.15521 -0.023373 -0.69418 0.62447 -0.23303 -0.041288 -0.41226 -0.14473 -0.16915 0.084288 0.19782 -0.22474 -0.39518 -0.063818 -0.15207 0.48848 -0.19624 -0.092323 -0.11208 0.48062 0.1502 0.16482 0.069991 0.20398 0.2744 0.10722 -0.13518 0.060259 0.34003 0.14599 -0.20645 0.18693 -0.1014 -0.73766 -0.23671 -0.36847 0.30949 -0.63721 0.14588 -0.11723 0.063349 0.60092 -0.012309 -0.26565 -0.17522 0.59259 -0.5172 -0.13268 0.3019 -0.055295 -0.44319 -0.29303 0.36895 -0.725 -0.043327 -0.12039 1.0143 -0.1095 -0.13005 -0.11574 0.045892 -0.16823 0.67455 -0.21077 0.055408 0.016262 0.42579 0.38818 -0.20379 -0.017291 0.58681 -0.0085672 -0.23168 -0.4107 -0.086382 -0.65697 -0.48998 0.69199 -0.4332 0.022472 -0.02512 0.078076 -0.0063892 -0.59697 -0.30182 -0.071086 0.046787 -0.038441 0.16263 0.27344 0.31185 -0.28202 -0.41311 -0.28944 -0.15435 0.2685 0.18724 -0.26974 0.094203 -0.23049 -0.061482 -0.14436 -0.046718 -0.67856 -0.1326 -0.43208 0.47615 0.23355 -0.15749 -0.35336 0.39185 -0.36187 0.60623 -0.10473 -0.29124 -0.24645 -0.29554 0.40559 0.1744 0.051506 0.41352 0.11658 -0.22966 0.047616 0.10087 -0.31898 0.55657 0.077343 -0.12822 0.060782 -0.31084 0.70556 0.29236 0.45599 0.11233 -0.23744 0.17324 -0.033721 0.38582 0.50236 0.24753 0.16355 -0.09374 0.096403 -0.055674 -0.14206 -0.33746 0.86986 -0.21227 0.042304 0.095639 0.38311 -0.24073 -0.24532 -0.69901 -0.21481 0.4347 0.17111 -0.14518 -0.4831 0.2076 0.33668 -0.55933 0.045438 0.097966 -0.12268 -0.23868 -0.31078 -0.2273 -0.054625 0.10274 0.16294 -0.63844 0.90329 -0.27915 0.12867 -0.47923 0.28614 0.17199 0.53764 0.4481 0.51157 -0.28742 0.31283 0.011356 -0.033055 -0.11075 0.063039 -0.2415 0.1252 -0.17352 -0.64926 0.21375 0.041533 0.2615 0.14562 -0.28135 -0.09334 -0.065928 0.28554 -0.17586 0.14736 -0.54718 -0.092727 -0.66556 0.024257 -0.47692 0.097785 0.04187 -0.25245 1.1531 -0.36809 0.19648 0.37068 0.3816 -0.33569 0.29907 0.50083 0.17451 -0.59842 0.094944 -0.074238 0.14259 -0.2704 -0.0695 0.15758 -0.11007 0.31738 -0.080729 -0.29678
